108 70
餅鋪 -0.00048543364 0.0010632585 -0.0071560484 0.0046413057 -0.0018256891 0.0036173686 -0.0053677987 -0.000118069074 0.0067617255 -0.00433176 -0.0064920066 0.0057299323 -0.0070045944 0.004701971 0.0042270296 -0.0031811332 -0.002832705 0.0025895785 -0.0018048825 0.0035804273 -0.0034370369 -0.00076123007 0.0043288358 -0.0021235289 -0.00036357154 -6.0493177e-05 0.0028038644 -0.003527073 0.0010948153 -0.0059890803 -0.0041546356 -0.0007825116 0.0058379625 -0.000285163 0.006597211 0.00482995 0.0057543935 -0.0044119633 -0.0029533769 0.0026270684 0.005343728 0.0025408373 0.00523781 0.0057999347 0.0037136686 0.0020966926 -0.0048884572 0.00749866 -0.0012815384 0.0016005893 0.0030978527 -0.0026299173 0.0011092374 -0.0020573905 -0.00026711152 -0.0033906659 0.0026952762 0.0024415716 0.0023375987 0.0003448828 -0.0015998409 0.0041071977 -0.004409574 0.0021217125 0.0026568703 -0.00079122523 -0.005989393 -0.004583753 0.0057104356 -0.0069236886
捷運站 -0.002256427 0.0029780578 -0.007989294 0.0013189302 0.0013864068 0.0032275533 -0.008509783 -0.0040875063 -0.0003858273 -0.0053950464 0.0061400756 -0.0006933307 -0.0049222135 0.0032283317 -0.008099531 0.0033394855 -0.0051573664 -0.009090312 0.00088297203 0.0016666298 0.0029006538 -0.0026318987 0.0054303757 -0.003185031 0.0027523777 0.0026024207 -0.005260948 -0.001507642 0.007705392 0.0053314553 0.0059233494 0.0016035824 0.0075484114 0.008572603 -0.004585159 0.008376589 -0.003943732 -0.007281802 -0.0028230515 -0.0043179435 -0.0061131143 -0.003792849 -0.0049758195 0.002670376 0.0053801825 -0.0075046564 0.0022789114 -0.0048670257 -0.0072058286 -0.002909099 0.005223032 -0.005094742 -0.0073412834 -0.0018576201 0.00032278415 -0.006404284 -0.0040307334 0.002546077 -0.002841893 -0.004018767 3.710281e-06 -0.0003541832 -0.000791555 -0.0029364675 -0.003929507 0.0034580263 0.0026928268 -0.0054390277 0.007970147 -0.0036504322
捷運 -0.0022701586 0.007296851 -0.00479354 -0.004984524 -0.0033523145 0.0054026693 -0.0043493332 -0.003602967 -0.004295436 0.0016331928 -0.0042477874 -0.0032232436 -0.00016628444 0.006962264 -0.0041081193 -0.0008994472 0.0061679007 -0.008775855 0.0016141257 -0.0024655752 0.005443599 -0.0037301132 -0.007023375 -0.0045181457 -0.004701387 -0.0071178307 0.0033741451 0.0022777256 0.00029874034 0.0006413649 0.005860776 -0.0053186393 -0.0017427597 0.0022786586 0.0071181417 0.005108184 -0.00858826 -0.009198725 -0.0058631045 0.0067672934 0.0046803877 -0.003930601 0.0056072613 0.0015309688 0.0038100907 0.005612551 -0.0049852896 0.004271154 0.0020359096 0.007189091 0.0061558615 -0.006805879 -0.0077660903 0.003255133 0.002032713 -0.0023578482 -0.002557803 -0.004372205 -0.0022119612 0.003145638 -0.000675502 0.0077572674 -0.005942432 -0.001449112 -0.0061202524 0.008079749 -0.0033501147 -0.0019654313 0.007828552 0.0031236778
氣象 0.0006212437 -0.0021748866 0.0007902035 0.0049451343 0.0018917717 -0.0026110038 -0.0032835489 0.006430921 -0.0036789025 -0.0071072774 -0.0019866473 -0.0055125314 0.0040822187 -0.004221739 0.0012531021 -0.0031965654 0.005587299 -0.007537519 -0.00023243936 0.0018960758 -0.0028147416 0.0031490277 0.0013157305 0.0026443638 -0.002348435 0.00076141855 0.0005028885 -0.0003427365 0.0051733167 0.006160206 0.00706929 -0.0037484472 0.0058378936 -0.0032889664 0.0043751206 0.001165808 0.003819044 -0.0049045077 0.0066193924 -6.56085e-05 -0.0036003098 -0.0024963177 -0.0057470803 0.00075608765 0.0021205896 -0.006418962 0.0047146105 0.0032679369 0.0048086992 0.00019903228 -0.0035139916 0.006658412 -0.00640788 -0.0021650724 -0.0032528422 -0.005254988 0.002240775 -0.0019214117 -0.0057363156 0.0060475706 0.0051290654 0.0028379306 -0.004163881 -0.006679477 0.0017262195 0.0020167036 0.005119995 -0.0043493914 -0.00027065285 0.0028473854
氣候 -0.0043216064 0.004539042 -0.0005543083 -0.0013069318 0.0021210422 -0.0071642064 -0.006421689 0.0019525489 -0.0019069415 0.0008818253 -0.0043641035 -0.005605635 -0.0011506648 -0.0049961926 -0.00837765 -0.0066424203 0.005771532 0.0015337906 0.0022156173 -0.007964813 -0.0020502866 2.5637248e-05 -0.00065859687 0.0006047231 0.00029872957 -0.0031398155 0.00035641144 -0.0036289399 0.0051240367 -0.0066428306 -0.0037834302 -0.007989527 0.00064601225 0.0038448027 0.008066284 0.008263106 -0.0045146295 -0.006392038 -0.008027279 -0.0026169536 0.0044069043 -0.008306421 -0.005394379 -0.005249914 0.0017263241 0.0047988705 -0.0057337754 0.005075643 0.0018416592 0.0053624636 -0.0057103364 -0.00078377273 0.0016015926 -0.002056527 -3.410451e-05 0.00015349666 0.00046531 -0.0057957033 -0.0025933105 0.0030616373 0.0020776293 0.0069329278 0.0024085438 0.0038923724 -0.006332501 0.009319306 0.0011001731 0.005327495 -0.0050420146 -0.0012641317
下雨 0.0017545919 -0.006309112 0.0009341319 -0.0070861476 0.0017451579 0.003005443 0.0036819747 -0.0026446169 0.003858432 0.0011305135 -0.0012378716 0.0024038523 -0.0041683074 -0.003416935 0.001827445 0.0046545523 -0.004986002 0.0028197558 -0.002798715 -0.0076489323 -0.0020252056 0.0028160384 0.0026893693 0.0049546747 -0.0037794379 -0.004625327 -0.005843917 -0.0060308725 -0.00025410627 0.0015528705 0.00016338656 -0.005371626 -0.001807756 0.0070852716 0.00022868185 0.0007115657 0.0038647235 -0.0057723722 0.0005211756 -0.0012967996 0.0016360314 0.0058173505 -0.0013671305 0.0017387813 -0.0016040559 -0.006359776 -0.0034980457 -0.0048937746 -0.0051557585 -0.0017033269 0.0059160194 -0.0014911494 0.0032718421 0.0045649675 0.002218831 0.004159969 0.0052401293 -0.0040424336 0.004580814 -0.0010641508 -0.00073707034 0.00019995437 -0.0050082584 0.0022340824 0.0045122006 0.00096576463 0.0021599333 -0.0039769793 0.0038595903 0.006304225
太陽 -0.002884098 -0.0047792806 0.0022558626 0.0006138592 -0.006924803 -0.00011042981 -0.0020306725 0.00063219154 0.0020608401 -0.0015075246 0.006333536 -0.0043912204 -0.006799258 -0.0013904857 -0.004619985 -0.00027069714 0.0038664564 0.002755254 -0.0076349103 -0.005890329 -0.0032803707 0.00452936 -0.006246691 -0.002079984 -0.0041793394 0.0023197702 -0.0007451522 -0.0027492088 0.0047444366 0.0012206021 0.00010715272 0.004873093 -0.0022240367 -0.002668138 0.004977338 0.0073865717 0.0039873635 -0.0007367675 0.0040962677 0.0037465259 -0.0052222293 -2.6178262e-05 -0.004668441 0.005507224 0.007158692 -0.001996731 -9.8005075e-05 0.0027045829 -0.005144747 0.0061161155 -7.977867e-05 0.0040369905 0.005418 -0.0014320328 0.0077038305 0.0052781156 -0.0057115625 0.0042221276 -0.0051245354 0.0060785976 -0.00423685 -0.0028983944 -0.0008727365 -0.0034171902 -0.00026313512 -0.002773021 0.00681185 -0.002874724 -0.005029008 -0.0043393592
陰天 -0.0060657435 -0.0028856022 -0.0036614581 0.005341442 -0.0013901561 0.00090435514 -0.007873651 0.0016804038 -0.00066951045 -0.0072742444 0.006112903 -0.0030623442 -0.00831155 -0.0006163209 0.00075134216 0.005202573 -0.0018956319 0.00073782745 -0.00675689 -0.006797297 0.0045003816 0.0009335759 -0.004719496 0.004748701 0.0014610663 0.00095303234 -0.00283194 7.418995e-05 0.0020429534 -0.002119634 -0.0043989 0.001942112 0.0061954926 0.0056210747 0.004499596 -0.0059643984 -0.0057421103 0.0014337931 0.005307405 0.0050951974 -0.0012377512 0.0050441693 0.0021482974 0.001653625 -0.0069038253 -0.0023113566 0.0009043223 0.003218154 -0.005562787 0.0013557362 0.0021352759 0.0065973364 0.0006881389 0.0010488054 0.00169121 0.0042884364 0.003483674 0.005569233 0.0010669731 0.0027503888 -0.0066210977 0.0029408887 -0.004102364 0.003880384 -0.006585036 0.008573997 -0.00630431 0.006004352 0.00020278196 0.0050377524
晴天 -0.0026056317 0.0054593217 -0.007620657 0.0058837254 -0.0066627637 0.002607791 -0.007747668 -0.006169132 0.0024767898 -0.0069374754 -0.0005421332 -0.0029101141 0.0034307197 0.0044643506 0.00079139037 0.0065790485 -0.005780029 -0.0006842131 -0.006037085 0.0039098854 -1.9117573e-05 0.00022269714 -0.005741684 -0.0059152925 0.006141116 0.005904474 -0.0028125895 -0.001003262 0.005740896 0.006467424 0.00013559587 -0.0040627425 0.002520042 0.0054508103 -0.00086272525 0.0017545676 0.0033017534 -0.0077631357 -0.0038237043 0.0031301228 -0.0055706347 0.0055702734 0.0069112433 0.0014116942 0.0055409544 -0.0047864085 0.0013832881 -0.00035787874 8.881202e-05 0.0019212639 0.0008790173 0.004874424 0.00612281 -0.0059979428 0.007002049 0.0044697244 -0.0038223385 -0.0003407675 0.00027965815 0.004095939 0.00417206 -0.0021464399 0.0024979184 -0.0059213354 -0.0041732225 0.0014887272 0.003560948 -0.0065136473 -0.0005845527 0.0010477003
看 0.0017865328 -0.005839289 0.0019517748 0.0054992563 -0.0066520767 -0.00061428995 -0.006311851 0.004352368 -0.0063986075 -0.0065120826 -0.0009800541 0.0026752083 0.0059914417 0.0038585134 0.0029374433 -0.0007169968 -0.0047887457 0.004146848 -0.0005138043 -0.0033210006 -0.0025551056 0.00310846 -0.0039737294 -0.0017791444 -0.0006916251 -0.006689427 0.004009883 0.0013418103 -0.004299012 -0.005838404 -0.0019914946 0.004261736 -0.0039614625 0.0023284706 -0.0034011584 0.007424034 -0.0047229026 0.0006617164 0.002079686 0.0027398414 0.0036745495 0.0051259142 0.00091116934 0.006146563 -0.00035805616 0.0060900925 0.0052942154 0.006931212 0.0031384777 0.007165472 0.00651414 0.0050097276 -0.0015143718 0.0008680903 -0.0029880146 -0.0005056827 0.0054343836 -6.447726e-05 -0.004431325 -0.0010545492 0.0013932658 -0.0052068727 -0.00506792 -0.0058790836 -0.006163044 0.0065426845 0.0039783493 -0.0011242798 0.003295772 -0.0055991453
景點 -0.0001931656 0.0067263125 -0.0068932264 6.014641e-05 0.0029155456 0.0043421616 -0.0045672944 -0.0022533874 -0.0017935563 -0.003612107 0.00284835 -0.001688869 -0.0015116467 -0.004140221 0.00458046 0.003725525 0.0052644033 0.0005321481 -0.0055398974 0.004492469 -0.0038037996 0.004279993 0.0022418639 -0.0029840092 0.0037855878 0.006991267 -0.0007701896 -0.0020309947 -0.0023124693 -0.005213426 -0.0010283042 0.002335952 -0.00024449464 -0.0035442782 -0.0004690381 -0.0010544524 -0.0045854184 -0.00058553217 -0.005172665 0.0030438676 0.00028939787 0.00060766895 -0.0065801363 -0.006581767 0.0065253186 -0.0020628856 0.004654126 -0.0049371836 0.0025663103 -0.0014234845 0.0005287213 -0.0055454695 0.0067671863 -0.004349168 -0.0015900253 0.00067650224 -0.0005109977 0.006384794 0.0011362265 0.0018504827 0.0047795153 -0.0045560193 0.0065498212 -0.0038522535 -0.005416667 0.0042402344 0.0005540985 -0.0052429214 -0.0016130728 0.006857694
玩 0.0067208856 0.0009318324 0.004573535 0.005412943 0.0005074947 0.00533485 -0.0028305918 0.00053231814 0.0055957637 0.0007121919 -0.0017720093 -0.0029843058 -0.0044419365 -0.0033674987 0.003715617 0.0037007115 -0.0029737786 0.0011696332 -0.0026365258 -0.0014563765 0.002849227 0.0025454476 -0.0060583516 0.0029175791 -0.0026321278 0.0050707012 -0.006739278 -0.00069417316 0.007322876 -0.0036552413 -0.0068270727 0.005989478 0.0036341867 -0.006009849 0.007101327 0.0015759671 0.005103849 0.0015631331 -0.0018445139 -0.0012433173 0.004945986 -0.0020802564 9.949432e-05 0.0022583902 -0.0054412545 -0.004443761 -0.0010135559 0.0035039373 8.766394e-05 -0.00673042 -0.0034480535 0.005155739 -0.0075011356 -0.0022498001 0.005233184 -0.00049205264 -0.0036482748 0.006758723 0.0068664383 0.004752071 -0.0006144479 -0.0021765349 -0.0058192327 -0.0019421857 -0.00068317534 0.0033968894 0.005029872 -0.00030643906 0.003274978 0.005811061
好玩 0.005050655 0.0018829346 -0.006238134 0.0038562953 0.0026301492 -0.0004411411 -0.0034575863 -0.0050442703 0.0063085635 0.005626853 0.002186197 0.0037721926 0.005724764 0.006754669 0.003884968 -0.0040148287 -0.0023335011 0.0017973863 0.0016734764 0.0018118249 0.001566734 -0.00059784553 -0.0012311004 -0.0050313487 0.006306609 0.001794114 0.00019255224 0.0021137518 0.00495012 -0.006866867 0.0036533964 0.0058325646 -0.004009732 0.0068879006 0.001713922 0.00068306923 -0.0038346997 -0.007542618 0.0051305518 0.006706884 0.0016798126 0.006346654 -0.00028749922 -0.0044391234 -0.0015738903 -0.0042852527 0.0045341724 0.0037389593 -0.0035163262 -0.0023123405 -0.003748809 0.00022683613 -0.00418739 0.00679319 0.007357952 -0.00019822945 -0.0049327235 0.0014211702 -0.004516129 0.0043406193 -0.0059833894 -0.0038938539 -0.004480645 -0.00067894574 -0.0039680507 0.0034118025 -0.0058063497 0.0008161344 -0.00037604145 -0.0010881164
紅毛城 -0.0032020323 0.00054365705 0.002889429 0.00066546036 -0.004051304 -0.0005725356 -0.003836985 0.0028009117 0.0031142973 0.00056668994 -0.0028652824 0.0032618218 -0.006710886 0.0056522144 -0.004623972 0.0061233216 -0.0040540006 -0.0022329362 -0.0038476412 -0.00397043 -0.0021615992 0.002670435 -0.006529119 -0.0070597846 0.0059476183 -0.0012237929 0.0044068596 0.0056215925 0.0012405562 0.0055837906 -0.0013827248 -0.0039178473 0.0059556416 0.005506214 0.0051283166 0.00041444844 -0.004670987 0.00043876725 0.0060173655 -0.0007393012 0.003773223 0.0008459764 0.003345816 0.004093165 -0.005393211 -0.000991118 0.0056231115 -0.00047082826 0.0056337304 0.00695905 0.002171834 -0.0013478518 -0.0031592513 -0.0018421605 0.0005214272 -0.0003643572 0.0049816985 -0.00024479136 0.0042089005 0.0002556012 0.0013329512 0.0039775087 0.002194633 0.0047596702 -0.0013423626 0.0024363028 0.006884503 -0.00190234 -0.0036182594 -0.0072140945
陽明山 0.0038206363 0.0042446987 0.0011730914 0.0035159162 0.002233282 -0.0016690412 0.00045876845 -0.0065069613 0.0056821024 -0.002050051 0.006108157 -0.0003289258 -0.0079890555 -0.0061331973 0.0022417896 -0.0004914184 -0.0033410673 -0.007702217 0.0014307076 0.00088091294 -0.0067128553 0.0028152347 -0.0020622525 -0.0072674067 -0.0051622116 -0.0066220434 -0.0037957057 0.0068431986 0.0033018051 0.0032607166 -0.0015436376 -0.0034710516 -0.0036014672 -0.0014860135 0.004117068 0.0060743256 -0.0068091834 -0.007013963 -0.004877347 0.0026310277 -0.0006370323 -0.0032481975 0.0054720235 0.004254041 -0.005367867 0.005562596 -0.002171393 -0.005817749 0.0013280554 -0.0060645463 -0.0042592734 -0.0031217816 -0.000679938 0.0060499758 -0.0030098213 -0.0002313474 0.0044797966 -0.0067698266 0.0021251405 -0.004184356 -0.0045490908 0.0016810648 -0.0050012604 0.0029534246 -0.0051848385 -0.0039554336 -0.0028144459 0.0024434577 0.0073076654 -0.0059662666
漁人碼頭 0.0020149532 0.002766768 -0.005770585 -0.0034564282 -0.0036093264 0.0036320114 0.00066376344 0.0023858328 0.0071181264 -0.0033859296 -0.0019497714 0.006796692 -0.0070759254 0.006415812 0.0033089947 -0.004702418 -0.006687877 0.0024583023 0.0007689428 -0.0070775445 0.0030279874 0.0031000478 -0.00044951853 -0.0043160333 -0.0069489544 -0.00046272695 0.00024503144 0.0051304847 0.0038480836 0.00420375 -0.00036530173 -0.0028979406 0.0035306213 -0.0009702413 -0.0049088905 -7.7723984e-05 -0.0065027634 -0.0058026956 -0.0024371583 -0.0027058641 0.0053111967 0.0021662377 0.007307923 -0.0025021224 -0.00674091 0.005817502 -0.007296448 0.0066315937 0.0028242297 -0.005353561 -0.005493158 -0.00095155527 -0.0012818918 -0.004085259 -0.0016448546 0.000938211 0.0058622095 0.0022551452 -0.007158474 -0.0055666342 0.0055968855 0.0005509437 0.0061970227 -0.0005392067 0.0012952107 -0.0036082983 -0.006254911 0.0020414977 0.005943815 -0.006953148
天元宮 -0.0008992558 0.0050867223 -0.0035521132 -0.007588646 -0.0029312607 0.0021960128 -0.0052329623 0.0058691488 -0.0058536245 -0.0031772894 -0.00012020923 -0.0042478335 -0.0049902173 0.0072585996 -0.0016851925 -0.0018086175 0.006874777 0.0051830392 -0.002858834 0.0027454698 -0.0060927826 0.004884538 0.004089372 -0.007468107 0.0014034964 0.0049740635 -0.004915105 0.0045821285 0.00046477176 0.005311616 -0.001597972 0.0008233048 0.0027978632 -0.0024156682 -0.004422916 0.0061738826 -0.007282241 0.0025691625 0.002540333 0.00022983264 0.00071397074 0.0027119906 -0.002984748 -0.004745245 0.0067129033 -0.003306944 -0.007818097 0.0045440807 0.0005513854 -0.00594076 -0.006536714 -0.0001893983 -0.0009828106 0.0021221167 0.0001061754 -0.00555721 0.0028712922 -0.0041399584 0.0032827994 -0.001808115 -0.00055856747 -0.0063124974 -0.0005421326 -0.0058833635 -0.005411126 0.005504696 0.007379276 -0.002283136 -0.0049792165 -5.1734958e-05
情人橋 0.0020083296 0.0014047271 0.0065787793 -0.0033482471 0.00508651 0.0034000536 -0.004868359 0.0030584866 -0.0008985296 0.0011384138 -0.0056493487 0.00028939353 0.0040911892 0.0022387644 0.0016714509 0.0025790879 0.0032952002 0.005369758 0.001985923 0.0058182664 -0.0010112064 0.0027977736 0.004388143 -0.002894287 0.0005342249 -0.005075688 -0.0032464052 0.00057516183 -0.0030271497 0.006504061 -0.0014267894 0.0038172768 0.0005790593 -0.0025800578 -0.0036259654 -0.0022838756 0.00035551406 -0.007813587 -0.0031268448 -0.0018832575 0.0069164177 -0.0066049504 -0.0059478693 -0.006951539 0.0045989663 -0.001790926 0.004510537 0.006462611 -0.0060291165 0.0037981828 -0.0061812685 0.0052737477 0.0036129814 0.0051555545 -0.0034662671 -0.004024882 0.001781881 -0.0014625234 0.006249704 -3.51796e-06 -0.00047726557 0.0018084286 -0.0025593475 0.0064814184 0.0011794558 0.0024024427 -0.0017008577 0.0037860658 -0.0021623909 -0.0047405544
關渡宮 0.0030557718 -0.0026326277 -0.007834566 -0.006290325 0.0033908735 -0.005835104 -0.0017928871 0.003491164 -0.004624449 0.0029124885 -0.0025455747 0.0017657822 -0.009290263 -0.0038574254 -0.0065515125 0.004400841 -0.0004600651 -0.008464192 -0.005691917 -0.002713121 -0.0021159148 0.0013706184 0.0035483618 -0.0013239816 -0.0058586076 -0.0066297683 -0.0021173886 -0.0048199333 -0.0005997511 0.003755182 0.0038933728 -0.00086403225 0.006045663 0.0059198523 0.0053264466 -0.003497073 -0.0036390084 -0.0070446655 -0.006213529 0.0072311372 -0.0024041887 -0.0047813104 0.001022969 0.001852847 0.0020419552 -0.007816566 -0.005677567 0.0075241607 -0.0035374954 0.0015475967 0.003898221 -0.0064990586 -0.0025168618 0.00010404188 0.005498061 -6.266749e-05 0.00570815 0.002597093 -0.004019514 0.0074446667 -0.00093844335 0.006090452 0.0020442305 -0.0064525707 -0.006214019 0.007842699 0.005633551 0.004129886 0.0045474237 0.0020109494
滬尾礮臺 0.007106377 0.00031200235 0.0040699793 0.0062353513 -0.0020755082 0.00673947 0.005750454 0.0046515777 -0.0014430466 -0.0041874098 -0.0028732095 -0.0026679998 -0.00082314794 -0.0055080797 0.0010600932 -0.0004747477 -0.0016962446 0.0030949467 -0.0045000897 0.0012767208 -0.006266423 -0.0038079445 -0.0011164813 -0.0056736874 0.0018485797 0.0037450716 0.0034087677 -0.0038705196 0.0009377324 0.0006645085 -0.004427161 0.0017440628 0.0026420134 -0.005095432 0.0013707362 -0.0059314854 -0.0073696333 -0.0021479372 -0.00408803 -0.0018258633 0.00031029183 -0.0014029588 0.0047255578 -0.0011048544 -0.002702725 -0.00020543137 0.0060506747 -0.005281268 -0.005243816 0.00030603434 -0.002360289 0.005527044 -0.002080822 0.0021832655 0.0053649372 0.0059043714 0.0022696808 -0.0029524975 0.003944126 -0.002437189 -0.0007408587 0.003113966 0.0029349967 0.00028908518 -0.0046878024 0.0017239376 0.0052559404 -0.00149233 -0.002373906 0.0006854751
一滴水 -0.005467907 -0.00037713913 -0.00033513075 0.0015101447 0.004811817 0.0037342622 -0.008058666 0.00482075 0.00040710394 0.005536158 0.005967202 0.0009434505 0.0012606469 0.0025117768 -0.0031253805 0.0030988557 -0.0016042112 0.000120658384 0.0052200463 -0.007196977 0.0015352765 0.0008268737 -0.0032199346 -0.003725641 -0.00018121272 -0.002090552 0.00068823836 -0.002434354 -0.0024520976 -0.0005352701 0.007155528 0.0011874365 0.007812563 0.0018801433 -0.0002976559 -0.00524088 0.0024447502 0.005906593 -0.004327385 -0.004823681 -0.0028306195 0.004165233 0.005387551 -0.0019782116 -0.003816325 0.0057815267 0.0063801063 -0.0063572726 0.0017728227 -0.0035243712 -1.2431578e-05 -0.0022577408 0.005339165 0.0016542558 -0.0011643866 0.005184583 -0.0041930997 0.0018549415 0.004950079 -0.0020909896 0.0058577824 -0.002672014 0.006295426 -0.0014308986 -0.004676772 0.003963267 0.003124944 -0.0069416594 -0.00050699513 0.0042205993
關稅務司官邸 0.0013975279 -0.0030080155 0.0059470222 -0.004950059 0.0024769015 -0.006759273 -0.0015706479 0.0034735415 -0.0012985168 0.0011488014 -0.0055875434 0.0060793753 -0.0015516201 -0.0032918684 -0.006371771 0.0010051158 -0.003005398 0.0045535974 -0.001474196 0.0033128776 -0.0011164319 -0.0033814705 0.005547572 0.0024320364 -0.004984231 0.00046397254 0.002763601 -0.0018826042 -0.0011114833 0.0033086166 -0.0056746793 0.00020258222 -0.00494721 0.007389259 0.0008990876 0.0027728218 0.001838771 -0.008094271 0.003225134 0.002545625 -0.0006931099 -0.007014772 0.003246124 0.0004921114 -0.0005638876 0.0005972773 0.004906439 -0.0030052932 0.0033367001 -0.0032745006 0.0016602675 -0.0022983016 0.00443596 0.00012572744 0.007342604 -0.0038402036 0.0024316635 -8.372754e-05 0.0048618987 0.0045226784 0.0032403856 -0.00520384 -0.0014605311 -0.0052569346 0.00034091924 -0.0018114649 -0.0038535462 0.0016380175 -0.0054666493 0.0012300997
淺水灣海濱 0.000238907 0.003965021 -0.0013119862 0.0011251075 0.003539977 -0.0059731645 0.0003873306 -0.0002942918 -0.0013524083 -0.0023950587 0.005231078 0.00569368 -0.0058618733 0.0026537566 -0.0039614826 -0.0060577868 -0.004382693 -0.004395032 0.0016939699 -0.004157688 0.0032373504 -0.0061499225 0.0005445603 0.00068227516 -0.0027510456 -0.0053846743 0.0055661923 -0.00011945413 -0.004443243 -0.0014255979 0.004205652 -0.00020089006 0.0058885864 0.004996259 0.0015133665 0.0031041675 -0.00607526 -0.002504478 -0.0054674773 0.0070131156 -0.0065413397 -0.0050810617 0.0034877704 -0.006031283 0.004659196 -0.0023181892 -0.007126039 0.003034338 0.0030044797 0.0012449671 0.0008457768 -0.0061152517 0.005598519 0.0037577571 -0.0013801288 -0.0030265874 -0.0028479209 0.006168499 0.0007342178 -0.0053175795 0.0011176277 0.006961048 0.00174504 -0.0023058646 0.006315839 0.0047142534 -0.003924873 0.0048321886 -0.005116804 -0.0065876935
英商嘉士洋行倉庫 0.006519354 0.005660182 -0.007556028 -0.0007766358 -0.0031810233 -0.0019987887 -0.00034238867 -0.002815077 0.004488085 -0.0011015497 -0.0051912023 -0.004937862 -0.004890625 0.0018253869 0.0030669244 0.00047191666 0.0058533237 -0.0056790938 0.0065241945 -0.0018060434 0.0015760767 0.00075946003 -0.00052953995 0.00030819135 -0.0038629423 -0.000316592 0.0037857636 0.0051820246 0.006473949 0.0026539501 -0.005244686 0.005329139 0.0042092754 0.0045998855 0.0017145851 -0.0021482615 -0.0069893417 0.00033804093 -0.0041987547 0.0063998196 -0.0013155774 -0.007360654 0.0037948543 0.0066141263 -0.0024789735 0.004486298 0.0033095807 3.3066433e-05 -0.006993967 0.000119811906 -0.0019241426 -0.005044329 -0.004110312 -0.0035723583 0.0067688683 0.0059991647 -0.0069314106 0.00051017996 0.006249494 0.0042176372 -0.0008667046 0.0064124935 -0.00037350383 -0.007852923 0.003363201 0.008051795 -0.0014701341 -0.0002579148 -0.0038038807 0.004359244
情人塔 -0.0013209368 0.0021470308 0.00013659707 0.0060362797 0.0025312898 -0.0066967765 -0.0013504805 -0.0011020869 0.006616056 0.0003618478 0.004923611 -0.0018630825 -0.0062437383 -0.003999156 -0.0013511832 0.0012012491 -0.0009013691 0.0012540694 0.0019620014 -0.0020419676 -0.0064123515 -0.006022655 0.0039361413 0.0026836437 -0.0018369524 0.0060608126 -0.0025913303 0.0067449138 -0.004291205 0.006723062 0.0056414683 0.0048357556 0.0071624545 0.0077532423 -0.0001504683 -0.0006847539 0.0025547298 -0.0030480016 -0.0054220306 0.0069894674 0.0043848623 -0.007210205 0.0036729062 -0.0054250024 0.0068667983 -0.0041713426 0.0017619492 -0.0040584253 0.003995961 -0.006644356 0.0026781799 -0.0033993977 -0.0066403686 0.006346305 0.004341721 0.005103691 0.001681603 -0.007424495 0.004542746 -0.0064695147 0.0009224507 -0.0037477456 -0.001720098 0.0014796207 0.00543775 0.0060257926 0.003537691 0.0053387065 0.004078326 -0.0046079936
滬尾櫻花大道 -0.0010313086 -0.0016841912 0.0024214748 -0.0064343875 0.0053111995 0.0016782102 -0.00494324 0.003059163 0.003419276 -5.3592936e-05 0.0020527735 0.00068340957 -0.008228988 0.0016897108 -0.0077709462 0.0016913706 -0.00082996767 -0.0032398943 0.0049099573 -0.007468589 0.0042588282 0.006273066 -0.003644093 -0.0004156022 -0.0015095532 -0.005761702 0.004307682 0.003293986 0.0018065878 -0.006578675 -0.003106113 -0.0012759299 -0.0007097617 -0.0017325307 0.005555534 0.0049403724 9.1423964e-05 0.0030839222 0.005882402 -0.0064354036 0.0017741645 -0.0035242576 0.0066407667 -0.0060745194 -0.00051075075 0.0038616634 -0.008139416 0.0048619173 -0.0033383984 0.006657398 -0.006521552 0.00275702 -0.007962188 -0.0051914323 0.001828761 -0.0026356112 0.0009416288 -0.0068506226 0.0016410283 0.0017462989 0.005879428 0.0054020802 -0.004040354 -0.0052234945 0.001212011 0.008150309 0.006209953 -0.00033730274 -0.0050736987 0.002345202
雲門 0.0013118804 0.003297285 -0.0016841475 -0.00714787 0.0026183329 -0.00018333427 0.0014092698 0.0037986273 0.00084274577 0.0035081524 0.004925452 0.00699759 -0.008577268 -0.0015295346 0.003934865 -0.0051354025 0.0061769686 -0.0085478015 0.0010924765 -0.002151383 0.00019117305 -0.0049900953 -0.007704971 -5.7328965e-05 -0.003693821 0.0003964132 0.0055482346 0.00028191778 0.0077544237 0.0067219594 -0.004049735 -0.006544794 -0.0011897667 0.00469608 -0.0023968099 0.0077585694 0.00345792 -0.0025269578 0.00085825776 0.00287422 -0.0027063405 -0.00014946813 0.002445927 -0.0078111077 0.00034777532 -0.005046068 -0.00033068165 0.0021721604 -0.003093715 0.00088562875 0.0052999365 0.005126186 -0.0024462533 0.005038686 -0.0034193466 -0.0061136223 -0.004019401 0.0028823575 0.0015476827 0.001244486 0.005878568 -0.0014320998 -0.0004675605 0.0007056796 0.0005214706 0.009504584 0.0046108915 0.0034776423 -0.0042260713 0.003950481
金色水岸 0.0030655263 -0.0064153927 -0.0062968642 -0.0051177666 0.005669893 -0.0007465189 -0.007380236 -0.0019844985 -0.0006281899 -0.008413527 -0.0009923261 0.005626336 -0.0076957066 0.0052310782 -0.006532895 -0.00056078413 -0.005880687 -0.008647797 -0.0011760353 0.0006443715 -0.006846149 0.0054252306 -0.00036584315 -0.008160566 -0.0031335752 0.0026958717 0.0050518475 0.0023296445 -0.0030997791 -0.0031542361 -0.0006647355 0.000402015 0.004841082 0.007525093 0.0059805233 0.004623806 -0.0061723944 -0.0010533741 -0.0037651397 -0.005711364 0.004426708 -0.0020598664 0.004088683 -0.0052209967 0.0012271744 -0.0018679824 -0.0037422287 -0.0032268493 0.0063711 -0.0061789337 -0.002586454 0.004528317 -0.0048623397 0.0063187745 0.007090135 0.002590117 0.00053737557 -0.0016915409 -0.001709593 0.004387481 0.0023279795 0.0050101005 -0.0018795297 -0.007348585 -0.005000525 0.008735076 0.0056687035 0.0019136847 -0.0006996865 0.00034483074
緣道觀音廟 0.004350344 -0.0047013625 0.0046898206 -0.005574279 -0.004510165 -0.0007912431 0.0017716722 0.000189528 -0.001052521 -0.002841881 0.006492834 -0.0037274447 0.002728858 0.0025301094 0.003814016 -0.004258234 0.0049295095 -0.0005861345 -0.004961234 -0.0049694483 -0.0067933463 3.7791044e-05 0.006032566 0.0021444892 -0.0013733266 -0.006646452 0.0066250255 0.001261231 0.0034158623 -0.0061661876 -0.0056238845 -0.0029007185 0.0017246493 0.0050224005 0.0032481425 -0.00081837183 -0.0014026238 -0.0065464103 -0.00077801116 -0.0061388323 -0.0029358196 -0.0068298546 -0.005833013 -0.0018766447 -0.00031458266 0.0001960105 -0.007811543 0.0032390337 -0.0031023445 0.0011200984 0.005707944 -0.0059664454 -0.007393462 -0.00512267 -0.0022094897 -0.0040158965 -0.0054549077 -0.0047079786 0.0008585537 0.0055285906 0.0020211227 -0.004112246 0.0043317 -0.0068042604 0.00017475412 0.006766482 -0.0023652823 -0.0017755056 -0.0017083768 0.0036074654
滬尾偕醫院 0.0068764184 -0.0054825046 0.0028935745 -0.002086013 0.0028584905 -0.0051765633 -0.0061841453 -0.007877215 -0.0030523129 -0.007143703 -0.0006464148 -0.00053729507 -0.006641997 0.0013550669 -0.004732496 -0.0032404216 -0.0019127304 -0.0014927945 -0.007486859 -0.00551622 -0.0021308202 0.0024722829 -0.004579804 -0.0061817 -0.0025999052 0.0052897274 0.0005040572 0.008241487 0.0047305007 -0.004356152 0.004209502 0.001095898 0.0031151795 -0.0042540045 0.0023412548 0.008041154 0.0004713046 -0.006696196 0.0020178524 0.0011958684 -0.0028521488 -0.00060806714 0.0028249207 6.3521344e-05 -0.004375208 0.0015115021 -0.003748411 -0.0027645817 0.0038665559 -9.128074e-05 -0.0046773846 0.002802642 -0.002559062 8.673398e-05 0.00661399 -0.005978337 0.0016181316 0.0017544231 -0.005787638 0.006264045 0.0016333145 0.0020102616 -0.00407797 -0.0025424676 -0.0020822894 0.009647856 0.0055022007 -0.0063900184 0.0047182115 -0.0076938495
多田榮吉故居 0.0028500045 -0.0041353833 -0.0054395334 -0.0034145268 -0.004602718 0.0011904539 -0.0075870976 -9.0762605e-06 -0.0019390413 -0.006196356 -0.0067574093 0.0069781016 -0.0071394164 -0.001657935 -0.0058218697 -0.0027654618 -0.0011471112 -0.0076930705 -0.002404546 0.00016746644 0.0032861657 0.0040625595 -0.005886626 -0.0057351 0.0032422135 0.003310046 -0.0021169933 -0.0061471285 0.00038299154 0.006373748 0.006449214 0.0038897838 0.0030706725 -0.003074325 -0.0029981409 0.004117268 0.004672572 0.0020508687 0.0015224803 0.0032900958 0.00057550764 -0.00057805254 -4.0599225e-06 -0.00025688036 -0.0013415023 0.004310248 -0.0041635884 0.002806217 -0.0023951149 0.006671161 -0.0043182457 -0.006432481 0.0015788821 0.00038225745 -3.6038567e-05 0.006296429 0.0060113687 0.00044672377 0.006532242 0.005102221 0.0014780047 -0.00069879985 -0.0012832572 -0.0050765895 -0.0065090675 0.0046322285 -0.00045650318 -0.0026643912 0.0041065738 -0.0064289025
古蹟博物館 -0.0026044033 -0.0028046658 -0.0049248193 -0.0022367942 -0.0059564663 -0.0060845884 0.0017942024 -0.007063135 -0.00018364389 -0.008549747 -0.00056578696 0.0024353766 -0.0059963195 0.0077441377 0.003156233 -0.0059059635 -0.0035660656 -0.0055820355 0.005736772 0.0017898516 -0.0044666575 -0.006051881 -0.0042590555 -0.0024943461 -0.0038241753 -0.0036646163 0.0018195193 -0.00549123 0.007884496 0.001045799 -0.0021847608 -0.002761738 0.002954808 0.0025302626 0.0022116746 0.0062490273 -0.003592876 0.0018044482 0.00041523945 -0.0035941848 -0.002123208 0.00578788 0.00078025163 -0.000866476 -0.0036838793 -0.0012879411 0.004576877 -0.005237191 0.006028769 0.0036694696 -0.0020013032 0.006977455 0.005514784 0.006088195 0.0053520594 -0.005324184 -0.004143585 0.0024077601 -0.0059011406 -0.0035942993 -0.0043586064 0.006931003 -3.7448426e-05 -0.007573111 0.0017695982 0.008812631 0.00295777 -0.0026566405 -0.0012184973 -0.00019689857
沙崙海水浴場 0.0061087087 0.00749604 0.0044246414 0.00435551 -0.005888676 -0.0031144521 -0.0020786186 0.003773999 -0.0041196956 -0.0038765606 -3.7417303e-05 0.0027990937 -0.008720625 0.006500511 0.003620322 0.0027424912 0.0033062485 -0.0013303531 0.004572201 -0.0023010166 0.005384498 0.0053257393 0.0029212174 -0.004261326 -0.00021294369 0.0010916226 0.005728622 -0.0008712799 0.005837382 -0.0015176331 -0.0046551605 0.0064935065 -0.0040914384 0.003678137 -0.0045149312 -0.004406793 -0.0032597769 -0.0051074927 0.0019256524 0.00585028 0.004928474 -0.0015788397 0.0013377073 0.00038534743 -0.0050962116 -0.0048412695 0.0056195916 -0.0059432574 0.0017767668 -0.0024683517 -0.0042759716 0.003920663 0.0007808292 0.005681247 -0.0060945656 -0.0037479997 0.007006364 -0.004728441 0.0016226424 0.006731733 -0.004730586 -0.005290128 -0.0033931895 0.003079865 -0.001829638 -0.003088479 -0.0063169734 -0.004008132 -0.00033225387 -0.004432621
滬尾藝文休閒園區 -0.0059049446 -0.0055571087 0.004778277 -0.0021581897 0.0051513272 0.0008075426 -0.005112905 -0.0038468891 -0.004323213 -0.005014791 -0.0051472844 -0.004790116 0.0009820287 -0.004134073 -0.0059741703 -0.0041112658 0.0019476425 -0.008224368 0.0060517467 0.00028375228 0.005864612 -0.0045277504 0.0049410807 -0.005838305 0.0034309921 -0.00031702037 0.0005971215 0.0063071023 0.0038860282 -0.0025063716 0.0062846215 0.0006828238 -0.0050843735 -0.0027411694 0.0013544417 -0.005073706 -0.007203269 -0.005591285 0.0037845846 0.0026608882 -0.0068243546 -0.000351327 0.0072144293 0.0026062964 -7.103935e-05 0.00360645 -0.0014458196 0.00020778093 -0.007197831 0.0025223126 0.0068154274 0.0039065145 -0.0009288279 0.0060550994 0.003042743 0.006064655 -0.0023174332 -0.005139229 -0.003138111 -0.0013815425 -0.0027039512 0.0005216428 -0.0003378919 0.0010210315 -0.0042231944 -0.0009626253 0.00055842305 -0.0027559549 -0.0028250574 0.0060856384
清水巖 -4.215073e-06 0.0034474109 -0.0044832667 -0.005125495 0.0068070237 -0.006910876 0.0034041484 -0.0044522053 0.0046670325 0.00018679733 0.0056434176 0.007012682 0.0021438028 -0.0025970947 0.0033926375 -0.005921926 0.0010202406 -0.0045641824 -0.0025566255 -0.0059954626 0.0039852886 -0.006805603 0.0017282725 0.0026358878 0.00615173 -0.0072865803 0.0034611668 -0.000861903 0.0017590359 0.003208623 -0.006754563 -0.003948369 -0.0053052455 -0.0041801203 0.006314262 -0.00014517645 -0.0070570945 -0.002773905 -0.0025264784 0.003336515 0.0068524773 -0.0064092875 0.005115577 -0.0062774667 0.0027109564 -0.0063766404 0.0059895297 0.00027155553 -0.00048678246 0.0035536345 0.0018683358 0.0017776568 0.004376143 -0.004876616 0.0072711552 0.004852685 -0.0062686987 -0.00091172033 -0.0018923038 0.0016317277 -0.0030412152 -0.005314513 -2.3393717e-05 0.0003112295 0.0030538733 -0.0039497367 0.001183382 -0.007883456 -0.0055521717 -0.0052177915
龍山寺 0.0066532753 0.0053323996 0.0020789762 -0.0073306486 0.0019971959 0.004044434 0.0004670761 -0.0043774303 -0.00093337323 -0.0031562021 -0.005843235 0.006007373 -0.0024720575 -0.005700065 0.005151437 -0.0010842702 -0.006803502 0.005628184 0.0028056523 0.0008164306 -0.0069871945 -0.0009944226 0.0052205706 -0.0024882026 0.0034154465 0.0012903753 -7.796459e-05 -0.000553219 -0.003418847 -0.005663852 -0.00025767798 -0.004028508 0.005257606 -0.0013194135 0.0075463937 -0.0061858753 -0.0008301377 -0.0039897733 0.0050586914 0.0056608347 -0.0013017298 -0.004579437 0.0016541174 -0.0012632327 -0.0071088444 -0.0032062377 -0.0009171051 -0.0015873596 -0.0015099164 -0.0034136039 0.006987577 0.0033838789 -0.0006940415 -0.0018134072 0.0021358063 0.001860687 -0.0010904194 -0.005632726 0.0019406342 -0.0023830151 -0.0044154287 0.0032327566 -0.0035209595 -0.003043838 0.002302884 0.00047286338 0.0032094528 -0.0037442236 -0.0022542023 -0.006409884
紅樹林生態館 -0.0014073448 -0.004431853 -0.0051180916 -0.0075919977 -0.0067633595 -0.00531186 -0.00617643 -0.0005099632 -0.0022925807 -0.008126475 0.0026321674 0.0017862716 -0.005067048 -0.0041558817 -0.0040430324 0.0040455563 0.0053623365 -0.003596334 -0.0042045196 0.005685061 0.006404405 -0.0059598214 0.005972889 0.0042868503 -0.004686196 -0.0032597573 0.0020009403 -0.0014285865 0.005797231 -0.006049657 0.0017347399 -0.004214947 0.0006050277 0.0042898273 0.00042252673 -0.0039439527 -0.0070717013 -0.0027280448 0.0023476947 0.007544943 -0.0014900274 -0.0011919504 0.005340675 -0.0061499393 0.0056526177 0.0015251387 -0.0037927798 0.0038978315 -0.0041040964 -0.005869019 -0.0018509122 0.0052722204 -0.006182802 -2.1999078e-05 0.0030556114 -4.1785937e-05 -0.006706638 0.0031873288 -0.0048793238 0.0031309037 0.006936349 0.0026252416 -0.005348544 -0.0033654734 -0.0020026898 -0.0002188003 0.005651808 -0.004811094 -0.005229318 0.0052867914
吃 -0.0055213827 0.0041407477 0.00587259 -0.0008839834 -0.0032361713 -0.0020331894 -0.007830056 -0.0053923787 0.0025670337 -0.0075355587 0.00019544913 -0.0061804806 -0.0065915 -0.0008005934 0.0017511998 -0.002026755 -0.0017560145 -0.0011650363 0.0037646843 -0.0041093496 0.0037892587 -0.0069716945 -0.00093968195 0.0022273238 -0.0024399476 0.0034210787 0.0033036629 0.0013730398 -0.0011564214 -0.004001094 0.003830218 -0.0074738245 0.005585003 0.0020514315 0.0052389437 0.007110322 -0.006760053 -0.0014705245 0.0016958187 5.997719e-05 0.006617809 0.0024498717 0.0058074994 -0.005544373 -0.0038080944 -0.0070829727 -0.007795502 0.0072750556 0.0053028534 -0.003373304 0.0046175784 -0.0023348574 0.0016588646 0.00032300243 0.006233169 0.0010664719 -0.0027254305 0.0010171685 -0.0033059586 0.0017453464 -0.0025064175 0.0054721646 0.0062788287 0.0044210074 -0.0014380331 0.0013573143 -0.0018739915 0.0066100885 0.0057636574 0.00539291
好吃 -0.00036707873 0.0040030754 0.004067072 -0.0037948533 0.0045862496 -0.0006824459 -0.0031827337 0.00506338 -0.0018641107 0.0019176329 0.0041269497 0.0031460966 -0.0081427945 -0.0034181366 0.003541098 0.006793533 0.0015459111 0.0023208323 -0.0059664412 0.0035375662 0.0014734339 0.005367057 0.0022370438 0.0042934436 -0.0035457006 -0.005653538 0.0009692946 0.006804809 -0.00040773954 -9.916023e-05 -0.0030087542 -0.0019950906 -0.0035726738 -0.00513623 -0.0040345048 0.0039517824 0.00055704365 -0.0016112204 -0.0043741046 -0.006238656 -0.0038059775 -0.0039516995 0.0052516134 -0.0032587454 -1.564383e-05 -0.0073607755 -0.004848892 0.004528608 -0.00040861845 0.0031456233 -0.0053334055 -0.0040050284 -0.003551983 0.0016582907 -0.003153705 -0.0035896301 -0.001702726 -0.0007272729 0.0029870868 0.005736468 -0.0028011343 -0.0057233437 0.0047050966 0.0043113534 0.004143511 -0.0014076811 0.0007356326 -0.0014018806 -0.006106968 -0.004251512
阿給 -0.0050024567 0.0016600526 0.0060563604 -0.0055869604 0.0022258072 -0.0048796693 0.005234137 0.0042288676 0.006441165 0.001975495 -0.004014339 0.0065186075 -0.0057614776 -0.004100477 0.0017586768 -0.0039718635 -0.001263499 0.0053610927 -0.002135605 0.0041012 0.0040226425 -0.004902506 -0.0034094213 -0.001750119 -0.0029103765 -0.0044445978 0.0025974615 -0.00096419465 0.0008916401 0.006899286 -0.0024437099 -0.0020428312 -0.005967511 0.0057914536 -0.0036719707 -0.0016054041 0.0035074973 -0.0059955455 -0.006404656 -0.0036564346 8.6678614e-05 0.0020688057 0.006778904 -0.0052654776 0.00019478763 0.004951214 -0.0017421967 -0.006169803 0.0061530257 -0.00078275125 0.0051318104 0.0070745484 0.00027555946 0.004412151 -0.0046986733 -0.0016383581 0.00080198544 0.0050876383 0.00094470615 -0.0052639027 -0.0070373816 -0.006960855 0.0049151387 -0.004236524 -0.0067618485 0.0041137626 -0.004629894 0.005623894 -0.0005704884 0.0038270408
魚丸 -0.001406324 -0.0068800477 -0.0010718046 -0.006739185 0.00044153526 -0.0038784598 3.0785675e-05 -0.0058671683 0.006554996 0.0051017734 -0.0012633341 0.0068108463 -0.0025050496 -0.0044710184 -0.0055337637 -0.0029531498 -0.005812109 -0.003908391 -0.0014009537 0.0017048316 0.0047179023 0.0052459305 0.003466267 -0.002958594 0.0034428504 -0.0021159945 0.0049002618 -0.0057440624 -0.0034191855 0.007192783 0.006586451 -0.00095122453 -0.003708137 -0.006437606 -0.0021165758 0.006833339 0.005876712 -0.0043805684 -0.004364811 0.004854204 0.0014986085 0.003534057 -0.0058424086 -0.004263157 -0.002530994 -0.0010406424 -0.005034627 -0.002491831 0.0062697735 -0.002096099 -0.002475674 0.0052151047 -0.002352832 0.0051441733 -0.00541334 -0.0028706747 -0.0012985965 -0.0022952298 -0.0033480916 -0.0038239525 -0.003423192 -0.00072075357 0.0049743555 -0.0035297445 -0.0069415965 -0.00071194547 0.0028109779 0.0020936157 -0.001478261 -0.0008769753
酸梅湯 0.006891055 -0.005559413 -0.0064449618 0.0050592776 -0.004605011 0.0045905067 -0.003218732 0.006796189 0.0017309531 -0.0011074144 -0.0029953085 -0.006236991 0.0017970925 0.0011089308 0.0033124255 0.0007331002 0.0035705774 0.005742227 0.0047349646 4.4326054e-05 -0.0037907858 0.0040375004 0.0043114377 -0.00081491045 0.0056970688 0.003452622 -0.004793931 0.0019696422 -0.0054143677 -0.0007895066 0.0061707916 0.0015861903 0.0040468983 0.002500682 -0.0048432243 -0.00094462663 -0.007259285 -0.002179899 -0.0026801608 0.005425861 0.0064905365 0.0061183083 -4.725399e-05 0.0020032532 0.00059925526 -0.0043247365 -0.0071491003 0.00027822817 0.005385498 -0.0043107695 -0.0051654973 0.006878719 -0.004087158 -0.0050759558 -0.0042967238 -0.0003260601 -0.0070826416 0.0043446724 0.0037549932 0.0019014799 0.002884224 0.0014066924 -0.003968181 -0.0037421274 0.003069621 -0.006198688 0.0030953656 -0.001367851 0.004382365 0.003120537
胡椒餅 0.003554737 0.003474457 -0.0049356516 0.0015991528 -0.0040835263 0.0017606791 -0.00050217536 -0.00744296 -0.0055442736 0.00058242603 0.0056596566 0.0021620528 -0.0012769188 -0.000812357 -0.006608876 0.0031814647 -0.0041699964 0.0061906395 -0.004906102 -0.0023293837 0.0043579424 0.0033355416 0.0013033045 0.0041024834 0.0065821866 -0.0016221384 0.0042913663 -0.0016405393 -0.0002974464 0.0022927565 -0.0041819448 -0.0038061272 -0.0032662714 -0.001200456 -0.005389504 0.0062819463 0.0009537994 -0.0016745403 -0.0047129206 0.0004254012 0.0037367118 -0.0009361113 -0.003828688 0.0004931693 -0.0026995477 -0.005147378 -0.0038039149 0.006553606 -0.0067404094 0.005383321 -0.0037293204 0.0018779822 0.0022364012 -0.0014578688 -0.0050905664 0.0019273341 0.004567458 0.004084921 0.0045191487 0.0006690405 0.0027746265 0.0017134622 0.002270441 -0.0015031483 -0.00638511 -0.0052765417 0.0042762286 -0.0042170715 0.004815002 -0.0034562442
蝦捲 -0.0063097384 0.0028234122 -0.007667518 -0.000705882 -0.004948567 -0.006610883 0.001940973 -0.002379702 -0.0035065007 0.004124793 0.0059458083 -0.0014288246 -0.003964971 0.00718422 0.0018206651 0.0059175747 -4.7716756e-05 -0.007344996 -0.0008169611 -0.0077282116 -0.0061098 0.0055602905 0.0028957818 -0.006896365 -0.005735488 0.00011534874 -0.0018913031 -0.0020436766 0.0074263928 0.006335321 -0.006222878 -7.473196e-05 0.0074732755 0.0029576118 0.0046196766 -0.0029292558 0.0051143067 -0.0005541291 -0.0019004073 0.002820276 0.0014894734 0.00015585822 -0.004091426 -0.006703213 0.0033341332 0.0040850244 -0.007574667 -0.00529029 -0.0032801242 0.0050029866 0.0021676617 0.0041120527 -0.001719845 0.0070645814 0.0051141544 0.0051072016 -0.003127676 0.0033871962 0.005871485 0.0048590447 0.0010486414 -0.005582178 -0.0076672225 -0.0077110236 -0.0019315335 0.0052526533 -0.0021319538 7.222337e-05 0.0016631449 -0.0041419803
鳥蛋 0.0063424786 0.0067877886 0.0037034322 0.0022295748 0.0061869677 -0.0032167102 0.0031189166 0.0054050433 0.0050350963 -0.0030806803 0.0040379195 -0.006010385 -0.0053734733 0.006496688 0.0017498262 -0.00714392 -0.00070109183 -0.0033959628 0.0030669838 0.004456235 -0.0040918975 -0.006550407 0.0046866285 0.0018746404 -0.005411148 -0.00072546146 0.005807806 0.003310604 0.0072125457 0.0070647853 0.0025036028 -0.0071633593 0.001001098 0.0005990241 0.004845116 0.0014323181 -0.00012048223 0.0036351276 0.00057185505 0.0030461757 -0.0056539057 -0.005338888 0.0031510459 0.0054998756 -0.0011726434 0.0060980185 -0.0043744906 -0.0019860698 0.004208711 -0.0063030017 -0.005039264 -0.006125968 -0.0023040564 0.0037460176 -0.0017019685 -0.0051175323 0.0057863374 -0.0017335699 -0.0008562942 0.002768357 -0.0010830195 -0.0056058853 -0.004241139 0.0011866607 0.0041419375 0.0065833777 0.005659461 -0.0006994515 0.0049136207 0.00033089097
魚酥 0.0021987793 -0.0040793917 -0.0028442745 -0.000930033 -0.0025058282 0.0037897085 0.004810214 -0.0032032123 -5.0603172e-05 0.0035245155 0.0012277862 0.005092442 -0.005914929 0.0022726038 -0.005549388 0.0049618594 0.0053976025 -0.00061717525 0.0050363285 -0.00031255127 -0.003029331 0.003203752 0.005648562 0.0043338886 -0.00077730825 0.0060607735 -0.0033927863 0.0010748869 -0.0014096429 -0.0026025348 -0.0020244261 0.0053135 0.0035597302 0.0048192735 -0.0006932472 -0.0064393324 -0.007373328 -0.007683387 0.006087608 -0.004337742 0.0024319084 0.0013984236 -0.0057142116 -0.0051523577 0.0027232512 -0.005479777 0.0036278178 0.0072436333 0.0064509893 -0.001620003 -0.00572875 -0.0054534297 -0.0008669152 -0.0010705079 0.006349758 -0.0012884127 -0.005899054 0.0036953867 -0.00082107465 0.0031735552 -0.0069614314 0.0035425003 -0.0047468934 0.0024480901 0.0006196725 -0.0056637772 -0.00052092795 -0.0011714492 0.0061215623 0.0031502757
鐵蛋 -0.00091152603 -0.0022541003 0.00050194154 -0.0011994857 0.0042502834 0.0041739834 0.0015273424 -0.003885626 0.0032362475 -0.0027824175 -0.0011840584 -0.00074022345 -0.0009221148 -0.0037866812 -0.00049782306 0.0032675576 -0.004309181 -0.0064564385 -0.0010233122 -0.00018258642 0.0061636507 0.0032199284 -0.0002916722 -0.0033834015 0.0010720437 -0.007996255 0.003676644 -0.0033354193 0.0011877395 0.005148775 -0.0068458533 -0.00093997736 -0.0032874858 -0.00045862087 0.008452953 0.0008608415 -0.0028330341 -0.0013739927 -0.0028620744 -0.005504953 0.00063222414 0.0017068139 0.005544587 0.0023074106 -0.0071766963 0.0014283356 -0.003549422 -0.0023333288 0.0060120374 0.0075293626 0.00093162985 -0.0012400488 -0.0044156723 0.005689349 -0.0016815423 -0.003987235 0.0031682968 0.0060731983 0.0041626017 0.003040315 0.005530576 0.0019985843 -0.0077927643 0.0022813813 0.004007189 0.002409274 -0.004865441 -0.0014612876 0.0005350394 -0.0034656597
咖啡 -0.0040113004 0.0067983135 -0.0067283674 0.0018425005 0.0014066881 -0.0001578371 -0.004253465 -0.0067015723 0.0043640113 -0.0031148787 -0.000122005215 0.005876234 0.0026593609 0.0042550876 -0.0044894773 0.002376009 0.0070334408 0.003373758 -0.0035545991 -2.8298778e-05 -0.006771188 -0.00493229 -0.0026380178 0.0059907576 0.0017569097 -0.0052878163 -0.0006717499 -0.005101142 -0.0010010424 0.0046767965 -0.0035950544 -0.0066539124 0.003126622 -0.00047337217 0.0031154011 -0.0029149463 0.0009559718 -0.00057300687 -0.0056227087 -2.459433e-05 -0.0017636016 0.0058254506 -0.0062578036 0.0046503916 -0.0040686172 -0.001439533 -0.008020845 0.0016938178 0.0034864065 -0.003870162 -0.0039563756 0.003112788 0.004013705 -0.00069698866 0.0028972586 0.004637167 0.0024096617 -0.0032246928 0.0021221372 0.00210528 -0.001256412 -0.0007852909 -0.0073089483 0.0057680975 -0.008101987 -0.0011857564 -0.0047049364 -0.004688198 0.0023759173 -0.0009171714
喝咖啡 0.0008857522 -0.004827759 -0.003030226 0.0038629363 -0.0037437722 -0.007310638 -0.007467418 0.003438376 0.005988035 -0.007939051 -0.0063976315 0.0075439624 -0.005207797 0.007365979 -0.0056880265 -0.0027103173 -0.0065856497 -0.007855002 -0.0045858375 -0.0043566935 0.001935525 -0.0038804493 -0.006018567 0.004491811 0.0044156434 -0.0021837028 3.899372e-05 -0.00090302783 0.002817925 -9.855564e-05 -0.0015784252 0.0011184793 0.001922447 0.00382315 0.0066930666 -0.002714332 -0.0015729106 0.0058027995 0.004812476 0.006897038 0.0049047708 0.00027715848 0.00039044407 -0.006886106 0.0053605377 0.003924459 -0.007563615 0.00058097154 -0.003102858 -0.0054698163 0.0015358531 -0.005164161 -0.0022958608 -0.00019004814 0.0043188054 0.0041240216 0.0060493196 -0.0057434468 0.006466545 -0.0011416507 0.0038337228 0.004540135 -0.002924352 -0.0051837913 -0.0034722365 -0.0033123472 0.0062282323 -0.0057414006 0.006890255 -0.0012992357
波羅旺 -0.0013903809 0.0030866228 -0.0035091876 0.00248124 0.004742135 0.004970773 -0.0015115166 0.00010358599 0.0054345517 -0.005790825 0.0024780908 -0.0027001263 0.0003946659 -0.0019351335 -0.004154405 -0.005820862 -0.0056346757 -0.0080706775 -0.0046020807 0.0043750587 -0.0059885113 0.0037653334 0.003011055 5.9845675e-05 0.003769875 -0.0008735631 -0.005485445 0.0066574262 0.0065441523 -0.0049761524 -0.0063401456 0.0057022762 -0.00091607345 -0.002822832 0.0011248755 0.005214232 -0.0037769035 -0.00032953516 9.159222e-05 0.0063499133 0.0029570882 -0.0065293964 0.005357029 -0.0047070677 -0.0024223907 -0.0030209397 -0.007324814 0.007454735 0.0060993866 0.0060505094 0.003947359 0.004388204 -0.0013207907 -0.00095201214 0.0075683077 0.0015036794 0.0015313366 -0.0062623983 -0.0010846384 -0.006082204 -0.0048112916 -0.0038638997 -0.0017942672 -0.0066518886 0.0012718304 -0.0025459472 -0.0015964461 0.0012183716 0.0073045455 -0.005436957
臭豆腐 0.0014938413 0.001054437 -0.0019226415 -0.00072334835 0.005694774 -0.00520075 0.00060968957 -0.004212439 0.0034704963 -0.0005473525 -0.0029285296 0.005000963 -0.0053056027 0.00041549435 -0.007774238 0.00023640474 -0.0044215214 -0.007923882 0.0037033437 -0.007599518 -0.007333373 0.0026303788 -0.007160459 0.004949025 0.00029938045 -0.0066780117 -0.0049248124 0.0010310194 0.0026074054 0.0030361055 0.0027202154 -0.0029188287 0.00010665981 0.0003081827 0.008270676 -0.0017027566 0.00036320355 0.004545717 -0.005512851 -0.0023483005 -0.004097187 0.006232135 0.007318715 0.003031076 0.005036464 0.004055656 0.005184816 0.0028831 0.0047293776 0.0034692585 0.0020727701 0.00248552 0.0026431603 -0.00064577616 -0.0027590129 -0.0001329085 0.003346111 -0.0043605566 -0.005675852 -0.0020524897 -0.0070837727 -0.004686505 0.001403866 -0.002253062 -0.00051445136 0.0081149405 -0.0005925572 0.0006161558 -0.00047583482 -0.0024466822
紅豆餅 -0.0041357586 -0.0014032352 -0.00084623316 -0.0071117254 0.0049552964 -0.005104422 0.003944294 -0.003794003 -0.0050023487 -0.0047896733 0.0035072379 0.0025176383 -0.00021978337 -0.006143566 0.0034647505 -0.0050638122 0.00043470116 0.004537468 -0.0059816027 -0.0021727807 0.0012883793 -0.0034555178 -0.0061687827 -0.0045719435 -0.0052244784 0.0018765255 -0.0023625786 -0.0035929235 0.0031784554 0.006764391 0.0025498865 -0.0013773933 0.0027554422 -0.0010992719 -0.0040987097 0.0031241858 -0.0069356724 -0.0045324005 0.001199925 -0.0057267575 -0.0025200867 -0.004611545 -1.3783386e-05 -0.00080982415 -0.0023609004 -0.006275207 -0.0023279525 -0.0016354359 0.0033377772 0.0012364647 -0.0046294094 0.006808795 0.0014110191 0.0029093348 0.00054693315 0.002902508 0.0012833177 -0.0073547396 -0.006121279 0.006881544 0.005361971 -0.0040077055 -0.0037775738 -0.0007504763 -0.001584561 -0.0051895343 -4.0950163e-05 0.005166082 -0.0043536955 -0.0043438585
果汁 -0.0030180498 0.002890902 -0.00013281932 -0.006919666 -0.00041928812 -0.0008841901 0.0059576673 0.00078640523 -0.0065896413 -0.0030146153 -0.0047503198 0.001244711 -0.006042871 -0.0009489342 -0.0030923588 0.0028568634 0.0036984303 0.0035592278 -0.006197981 -0.0013861964 -0.0074614054 0.004984128 -0.0052360953 0.0026558314 0.0022970596 0.00076487404 -0.0029282954 0.0022250465 -0.004861857 -0.0050478764 0.0003336658 0.003924187 -0.005445032 0.0054685576 -0.0034951626 -0.005611238 0.0012492585 -0.007688887 0.00044975796 -8.614883e-05 -0.003913994 -0.0048823785 0.007051197 0.0051531307 -0.0008314511 0.0018852057 -0.0010053619 0.0010874181 -0.0028973622 0.00643285 -0.005209299 0.0008048302 0.001304986 0.006735914 -0.003802888 -0.0031119257 0.0004786415 -0.006852327 -0.0019769566 0.005538268 -0.001096499 0.0048758867 0.0017128696 -0.0017133739 -0.0031936339 0.0042727175 -0.0017478137 -0.0004986046 -0.0061476203 -0.003903646
冰淇淋 -0.0042452165 -0.0015559482 -0.0015533491 0.0030267 0.0059170574 0.0029370515 -0.008021488 0.00093696476 -0.0008984307 0.0021434303 0.0053752544 0.0040759807 0.0012153914 0.00026783033 -0.0058960766 0.0052267686 0.0009489232 -0.0066725803 0.0041042482 -0.006494609 0.0035030262 -0.00042962146 -0.0019298113 -0.007153674 -0.004916732 0.005533069 0.0029792304 -0.006544931 0.0027432037 -0.0068953787 0.004551908 0.0026771748 0.0049832 0.002539393 -0.0052486192 -0.00039373312 -0.005948319 0.0057233954 0.0015799794 0.004398605 -0.0057814955 -0.005828248 -0.00297347 -0.00043940384 -0.004577572 -0.0047372663 -0.0059083155 0.006684034 -0.0014450854 0.006653702 0.0046480508 -0.0036883263 -0.002851894 0.005622848 -0.0007341797 0.00651401 0.00046104417 -0.0029619627 -0.0005988367 0.00011887071 0.006891866 0.0062447083 -0.0053702346 -0.0020645678 -0.0077368645 -0.0027113543 0.00419577 0.0018124148 0.0009088799 0.0036259685
古早味蛋糕 -0.001480663 0.007474813 -0.0017117967 0.003053075 -0.003306561 -0.0057679047 -0.0048163873 0.0006530479 -0.0026752339 -0.0028110056 -0.0048474404 0.004135296 0.0036339413 0.0012462004 0.0024258909 -0.00513251 -0.004789542 0.0042015566 -0.0021470375 0.005218825 -0.004418215 -0.0044631064 -0.0008093652 -0.007402588 -0.0006991853 -0.0054988693 -0.0043351375 -0.005595552 0.0064421305 0.0019394333 0.0022251466 -0.0060998653 0.0041340413 -0.0011759077 0.0064755194 -0.0011332198 -0.004043037 0.0030606869 0.00076993956 0.0004032947 0.0052199615 -0.001609468 0.0012902461 -0.005875482 -0.0035593936 -0.007931556 -0.0013489582 0.0046750624 -0.0071055517 0.00088723 -0.00023624327 -0.00026348952 -0.008363902 -0.0020337051 0.008107353 -0.0031299477 0.0034211597 0.0060992874 0.0018442828 0.0046894103 -0.002047004 0.004202246 0.0039080638 0.005691262 -0.004303804 0.0013728107 0.002386911 0.00020927684 -0.0014892848 -0.007337626
腸粉 0.00031144306 0.0047391243 -0.0010462048 -0.0032801342 0.0049344827 -0.0073527163 -0.0023800451 -0.0036181603 -0.003919022 -0.0049949996 -0.0018926428 0.006055477 -0.0043947846 0.0045642965 -0.001709177 0.0068848287 -0.0017172884 -0.0010849668 -0.0061519863 1.2137294e-05 -0.0072090123 -0.0015112376 0.0001724618 -0.0035416067 0.0032400393 0.003304125 0.00636076 0.0010188076 0.005737481 0.0024430384 -0.0006872707 -0.00249605 -0.00024054022 0.0045301034 0.0071702744 0.002392236 -0.0028736636 -0.004402609 -0.0015105101 0.0046214126 0.0059167165 -0.0011934673 0.003964721 0.005487867 -0.002456593 0.00049436634 0.0010114808 0.0013429564 0.0060330806 0.00672973 0.00097570254 -0.0033688701 -0.0037869997 0.007158928 4.812271e-06 0.0047395034 -0.0063496083 -0.0059967823 -0.005373808 0.0024081666 -0.001830997 -0.0005762976 0.004629133 0.0058459733 -0.0016221632 0.005826711 -0.002750881 -0.00042236978 0.0043123453 -0.005123897
麵攤 0.0064749755 -0.0039321766 -0.0014749969 0.0046276734 -0.0025647092 -0.0038238403 -0.0069087697 -0.0047490457 0.00046877126 -0.0024571167 -0.005451961 -0.0041224826 -0.008683695 0.006538575 0.0022982184 0.005172705 0.0029678193 0.0033043164 0.0027932955 0.0021624074 0.0014803106 0.0035473 -0.0055111926 0.004128051 -0.00262614 -0.006309634 0.0039441306 -0.0060718325 0.008269341 -0.0025539284 -0.0048729493 -0.0024036362 0.0015195494 -0.0020708125 0.005147439 0.00012735029 -0.006838631 0.004005641 -0.006007391 0.0077224895 -0.0025582663 -0.00796455 -0.00013366676 -0.00016725635 0.0028878988 -0.0026352948 -0.009236334 0.008451053 -0.006914602 0.0037704047 0.0043034907 -0.0042426647 -0.0042609386 0.0034890107 0.00031784744 0.0045141354 0.006549764 -0.002885651 -0.0065187262 -0.0017502247 -0.0030076778 0.0018534829 -0.0059208293 0.0057795118 -0.0045682443 0.007732699 -0.0055509466 -0.007911695 -0.0037283835 -0.006143665
好喝 0.0019339707 0.0004598555 -0.001719178 -0.0046229553 0.005348678 -0.00557178 0.0027127848 -0.00047720538 0.00443742 -0.00765943 -0.007458854 0.0016570196 0.0016922966 0.0015539849 0.0057163923 0.0013240478 -0.006019723 0.0043574874 -0.003335743 0.004511942 0.004615881 0.0028443786 0.0017844521 0.0034490114 0.006267047 0.0019213028 -0.0012200106 -0.003883149 0.0025930337 0.0028857852 -0.0066176495 0.006112101 0.0062780636 -0.0023391792 0.001551827 -0.0040595364 -0.006349514 -0.0065424773 0.0047444124 -0.0035808582 -0.004362993 -0.0026336964 -0.0017307772 -0.0031857106 0.0044565075 -0.0020584632 0.00091523584 -4.4362496e-05 0.005508498 0.0050122286 0.0024212326 -0.006042932 0.0039471583 -0.0020370902 -0.003166231 0.0068082847 -0.0011801237 -0.0026443063 0.0016948644 0.0035128784 0.00028083587 0.0024448591 0.0024177404 -0.004428881 -0.00398018 -0.0024883922 -0.0020251472 0.005897023 0.005911942 -0.0007238857
喝 0.004482582 0.006603233 0.0062694 -0.0022620223 -0.0051583 0.0065107993 0.0032028053 0.0016351641 0.0012412017 -0.0036561554 0.005856237 -0.0018987751 -0.004877514 0.0051513496 -0.0033403237 -0.0018818836 -0.0011798516 -0.0070006996 -0.002194889 0.0015180558 -0.005533635 0.0059361197 0.0015213308 -0.006833065 -0.0018519383 -0.001046506 0.001144235 -0.0033190995 -0.0013840364 0.0069911703 -0.0068533425 0.00471549 0.00067470927 -0.00197188 0.006000536 0.0030650813 -0.005326594 -0.003667566 0.0034117487 -0.0007297722 0.004693631 0.0044410806 -0.0043391483 -0.00065856054 -0.0064842612 0.004624379 -0.008539685 0.0044662375 0.00245043 0.00060947647 0.00719937 -0.005068088 -0.007589586 -0.0027668627 0.0072354292 0.0023127063 -0.004957051 0.00077364355 -8.6673164e-05 -0.0038957284 0.0021415267 0.0064208284 0.0027469462 -0.0020317563 0.004982851 -0.00017152178 -0.003688026 0.0041343644 0.006683504 0.0040979683
住 0.002722522 0.0031516263 -0.006799319 -0.003563846 -0.0014536673 -0.0062769908 -0.008525433 -0.0072415886 -0.0032335718 -0.0020547102 -0.0038060911 0.00026718664 -0.003777098 0.0015931027 -0.002147954 -0.004081627 9.3318675e-05 -0.0016447897 -0.007490616 0.003368594 0.0058672177 -0.006362161 0.0032059932 -0.004328048 -0.004400454 -0.0017009763 0.0074853133 0.0036459751 0.00334778 0.0023721687 -7.206321e-05 0.0037415025 -0.004328942 0.006099092 -0.0031537607 -0.0015801109 -0.00465248 -0.0015440822 -0.00055488985 0.0075608687 0.00070466986 0.0028906397 -0.005853968 0.0061782165 0.0038056378 -0.0068060504 -0.0009688054 0.007899156 -0.0072117834 0.004052205 0.0048765885 -0.0010349725 -0.0039516813 -0.0020837563 0.003977928 -0.007194927 0.0056491587 0.0041283984 -0.007238487 0.0053165318 -0.006804627 0.0024232387 0.0057080276 0.0053051054 -0.006472814 0.001003471 0.00025652413 0.004717854 0.005441372 0.0012359272
住宿 -0.0054643136 0.004948003 -0.006489399 0.0034659768 -0.006223036 -0.0036049425 -0.00606977 -0.004390132 -0.006828924 0.0005684155 0.002125815 0.0048184455 -0.0017335844 0.005628193 0.00168822 0.0017343989 0.00174463 0.0043451474 0.0012082176 0.0044877063 0.00254983 -0.0014126981 -0.00040812278 -0.0023277896 -0.0031200415 -0.0032528422 0.0026092706 0.0075054355 0.0032019415 0.00065326877 -0.0037436218 -0.003476031 2.329249e-05 0.0019053047 -0.0030880256 0.0037979435 0.004764844 0.0022688373 -0.006331814 -0.0017865552 -0.0041445815 -0.007499507 -0.0005394644 -0.006298686 -0.0024922518 -0.0014199031 -0.0059662242 0.007338897 0.0025893333 -0.0012831896 0.0033347614 0.00087753206 0.004141561 0.0036500494 -5.5076016e-05 0.0065113353 -0.0020426332 0.0024612162 0.0006883564 0.007529971 -0.0032703243 0.0006512332 0.004177366 0.005117915 -0.002529735 -0.0047179656 0.006011897 -0.007569641 0.001691606 -0.0020491525
過夜 -0.0035016455 -0.0045973687 -0.0074782013 0.0035987287 0.0039707874 -0.0006778447 -0.0043686153 0.0030697319 0.0014983492 -0.005068515 -0.0071720975 -0.005697081 -0.0059326864 0.0042817364 0.0009076382 0.0016818988 -0.00071529456 0.004592592 -0.0019423867 -0.0038825748 -0.000150192 0.0013858341 0.0054584704 0.0028807383 -0.004564299 -0.005399743 -0.0037327816 -1.2574507e-05 0.0026503722 0.00056283094 -0.005243184 0.00517059 0.0026129365 0.00069286436 0.006005707 -3.0456487e-05 0.0058001666 0.0049836775 0.0015358053 0.0027921766 -0.002616958 -0.0076832175 0.0029090412 -0.0070451517 -0.006831078 -0.0020429913 -0.00800421 0.003198857 0.005895535 0.006486472 0.0005717022 -0.0071907095 -1.9942388e-05 -0.0023660674 -0.0055559417 -0.0012987099 0.004598994 0.0005710618 0.0057936227 0.0017348304 0.004884569 -0.0039310376 0.0042410786 -0.0047263787 -0.004347373 0.000771501 -0.0006323309 0.0014544108 -0.0033893997 -0.0069696475
民宿 -0.006786233 -0.00049803586 0.0012254316 0.004870321 0.003948956 0.0028662176 -0.00086480664 -0.0051089837 0.0026697288 -0.008250949 -0.0074345325 0.0015879133 -0.0035309168 0.006561553 0.0053581465 0.0051236427 -0.00027869208 -0.0043950677 -0.0010316266 -0.0028603328 0.0067039947 0.005529854 -0.004887428 -0.0067628827 -0.0045826826 -0.0062948656 -0.0014803064 0.0025024149 0.0063920785 0.0072951308 -0.0020241614 -0.00046086792 0.0067937374 -0.002215532 -0.0041604615 0.0009203481 -0.0013411317 -0.008058466 -0.006684291 0.0043586865 -0.0032242825 0.0058743358 -0.004954886 -0.0062783076 -0.0060457634 -0.003955774 -0.0015648531 -0.0028499991 -0.0059910137 0.00032171636 0.0062910803 0.005491965 0.002503567 0.004383201 0.002369734 0.0036901617 0.00030242614 -0.0051769456 -0.0049083587 0.005040811 -0.0034214216 -0.002978381 0.0050035547 0.005137071 5.442746e-05 0.0012643891 -0.001554607 0.00089170877 -0.00651463 -0.004995949
旅館 -0.0012565561 0.0020113569 0.0038532615 0.003075152 -0.0035316672 0.0021731933 -0.0041241827 -0.0019951873 0.0013737205 -0.008440679 -0.0040207566 0.0023558596 -0.008381583 -0.0029536611 0.0012589283 0.0039883577 -0.005466781 -0.007418917 0.0017191558 -0.008093741 0.0026523785 -0.0012406678 -0.0071021263 -0.0061960206 0.0012311608 -0.00567327 0.007306641 0.0040201615 -0.0041291937 0.0014796024 -0.0037817105 -0.00018415242 0.006247135 0.007912746 0.0022762679 0.0026178323 -0.0023906906 -0.007046197 -0.0021985814 -0.00315407 0.0061806403 -0.0014356442 -0.0047881017 -0.007385007 0.0063739964 -0.0075552687 0.0040259627 0.0035117222 -0.0065434473 0.00031772954 0.00667853 0.0015042017 -0.0057142624 0.0015880398 -0.0048390497 -0.0007956299 0.0038066278 0.0050460184 -0.0015241451 -0.004391693 -0.0052667283 -0.0040430618 -8.953189e-05 0.0018941301 0.0015694804 0.0035120286 0.0020169115 -0.0035789083 -0.004232166 -0.003507012
飯店 0.0023475124 0.0031973675 0.0010966155 -0.0023798228 0.00018156393 0.005913808 -0.002214264 -0.0030164958 0.0058025825 -0.004101851 -0.0055473503 0.0010690488 -0.0063484847 0.001634222 0.0008823599 -0.0038709675 0.0004081668 -0.0077613243 -0.003915366 0.001112897 -0.0072037736 0.005372832 -0.0018380121 0.0036645674 0.00074791786 -0.006429825 -0.0019976473 0.00393675 0.007731195 -0.0049183453 0.0050567063 -0.00054135255 0.0014044283 -0.0038341293 0.0033475368 0.0056523564 -0.0012582885 -0.005094711 -0.0030894037 -0.0022228325 -0.00329815 0.00015556655 0.0030687323 0.005698343 -0.0056722453 0.0034719855 -0.004637006 0.0003580334 0.0016656733 0.006789989 -0.004812507 -7.1622504e-05 -0.007953745 0.0077865426 0.00019708485 -0.0063414504 -0.001209747 -0.0003846447 -0.0035483455 0.0045347107 -0.0025192164 -0.004638646 -0.0048753573 -0.005757182 0.0022658305 0.0013190508 -0.0048997863 -0.0046763513 0.006375679 -0.0012621287
hotel 0.0026089728 -0.0015055394 -0.005947014 0.0021717374 0.0036749723 0.0011214376 -0.0038273674 -0.0069967555 -5.7308e-05 -0.007946955 -0.002503003 -0.006427861 -0.00790249 0.0028001978 -0.00050835445 0.0035330527 0.0040992512 -0.003343471 -0.00062272546 -0.006553324 2.5990643e-05 0.004498173 -0.0026846374 0.0063954084 -0.005932054 0.0040393514 -0.0062596616 0.0016798682 0.0028943296 0.00046640047 0.0052047293 -0.004423054 -0.0012673779 -0.0022457966 0.0014421328 -0.0032870115 -0.006527795 -0.005245558 -0.0064363535 0.0023952175 0.0010332727 0.0013806392 0.002470033 -0.0055511496 0.004746494 -0.007373428 0.0045888075 9.995811e-05 -0.002821696 -0.00047998643 -0.0006063714 -0.0012844017 -0.0058720014 -0.0032760373 -0.0047782264 0.0006888606 0.0064679715 0.00017298068 -0.0029885552 -0.0058678444 -0.007139052 -0.00589609 0.004674695 0.0022485317 -0.0044734646 0.004654202 -0.0058307764 0.0061434917 -6.503854e-05 0.0002907531
交通 0.003655847 -0.0011939709 -0.0026013986 -0.007922539 0.0060785427 0.0038057237 -0.0023764616 0.0060905335 0.001065157 -0.0086728325 -0.001737421 0.007845319 -7.526033e-05 -0.00074211287 -0.0052874484 0.004084661 -0.0021428433 0.002970851 0.005671379 -0.0017210019 0.002190376 -0.005230008 0.0013785628 0.0051808865 0.0054591694 -0.00074343715 0.0024449083 -0.005474244 0.006519877 0.002523583 -0.0025516865 0.005451482 0.0050337934 -0.002753687 -0.0025886185 -0.003949665 0.005417404 -0.008395674 -0.004393588 0.0015428581 -0.0059199403 0.0062517803 0.006943054 -0.0057949126 0.005128547 -0.0057472372 -0.00065732904 -0.006002422 -0.0043199994 -0.006847214 0.0069279126 0.0018392315 -0.006542234 0.0067477846 -0.0031408772 -0.0021837708 -0.0037537292 -0.00012588968 0.004219419 -0.0013420108 -0.0061014188 -0.00450261 -0.005398405 0.003606764 -0.005209293 -0.0020253009 -0.0031946092 0.0016131942 0.0010131358 -0.0057252734
公車站 0.007148223 -0.0056372047 0.0035136424 -0.0065781516 -0.0032566807 -0.0050101043 -0.008112322 0.0051235016 0.0022209687 -0.0069515305 -0.006298 0.003483563 0.0033775575 0.0047013313 -0.008223349 0.0029191002 -0.0044500637 0.0022890265 -0.0039073783 -0.0058220206 0.0054227514 -0.0021061788 -0.0034090013 -0.001051136 0.00021986538 0.0016001397 -0.0014940535 -0.0058630267 -0.00072569324 0.004866886 -0.005213704 -0.004281343 -0.0018427371 -0.00582113 0.00013894559 0.0035811004 0.0035856834 4.659117e-05 -0.003808955 0.007955162 -0.004438929 0.0018945324 -0.0023080977 -0.006407095 -0.0044588894 -0.00011119354 0.0021615042 0.0025257592 -0.006283962 0.005364322 0.0071352357 -0.002269721 -0.00377519 -0.0032142976 0.0065928 -0.003378359 0.0020399732 0.001960688 0.006387983 0.0006743727 0.0013458878 0.0029466227 -0.0039343587 -0.0032459355 0.005214427 0.0024646795 0.0028672465 -0.0062925434 0.0068904823 -0.006972562
搭車 0.0022049746 -0.0034356974 -0.007438972 0.0030493077 0.0037819613 0.002322518 -0.0051734564 0.0024032635 0.0063823904 -0.0030197878 0.0029305213 0.0031401522 -0.0101901125 0.006852848 0.0014242787 0.004528513 0.0048605604 0.0021892916 -0.0044001495 0.005530872 -0.006873386 -0.0055144234 0.00487843 -0.0053361664 -0.0079765925 -0.00783162 0.004065083 -0.00017242135 -0.00040865428 -0.0006748299 -0.0017798187 -0.003077473 -0.005030038 0.0045691556 -0.003955225 -0.004669269 -0.0065102917 0.0027480312 0.003997164 -0.003995146 0.0037614976 -0.0072045964 0.008033019 -0.0036773288 0.006297602 -0.004543582 -0.005177919 0.00042456575 0.005620598 -0.003237311 -0.002818729 0.0034622417 0.00039379156 -0.005605451 1.8422563e-05 -0.005859751 0.005319654 -0.0047045574 0.005068084 0.007328733 0.004502627 -0.00493683 -0.0044073686 -0.0064052977 -0.0024474666 -0.002129453 0.006312592 0.0004240228 -0.0055753742 0.0019144823
坐車 -0.0018372191 0.004473802 -0.000111647016 -0.0037494157 -0.0031634418 0.0031284469 -0.004832314 0.0037084485 -0.0059245927 -0.0014140209 -0.006989479 0.0078062126 0.00080922496 -0.0035039387 -0.004627157 -0.0061921705 0.0035096277 0.002826318 -0.0054136473 0.0037625835 0.00023026211 -0.0071227853 0.004349007 0.0018170361 -0.0076012854 -0.0011004203 0.0030450493 -0.0054461984 0.0022531825 0.0061313347 -0.0013355206 -0.0012311881 -0.0024111485 0.0070974147 0.006486862 -0.0014946372 -0.007822932 -0.0035898644 -0.0027770794 -6.7732355e-05 -0.0070580402 0.0032939794 0.006541782 -0.0032264518 0.0020106442 -0.001973493 -0.0085019525 0.0034254915 -0.005809794 -0.0049176817 -5.3511558e-05 -0.00066067686 -0.0043661585 0.0025369625 -0.0016957619 -0.0028563587 0.0027093443 -0.0047978195 0.0016981635 -0.0043951585 0.002432345 0.0005071362 -0.0040825983 -0.0010362363 -0.00549841 0.0091336705 0.003904083 -0.006868141 -0.00195352 0.004485719
公車 0.006892076 0.004432646 -0.0034957048 0.0019363362 -0.00085588853 0.0012939895 -0.0072606597 0.0060077566 0.0021165982 0.0009893978 -0.002679032 0.0042414484 -0.008477385 -0.005710594 -0.005692351 -0.0018747794 -0.0014913965 -0.005685687 0.0040181815 0.004714338 -0.0029935106 -0.0016587421 0.005327773 -0.0067785326 0.0033540358 0.0045134136 0.0043714917 0.0073801144 0.0062506665 -0.0059043276 -0.0063391533 -0.0018646746 -0.0038121026 -0.0037402406 0.0077993823 0.00037793128 -0.00728305 0.0026607765 0.0026392133 -0.0053728367 0.00027777324 -0.0032491698 -0.0059410715 -0.00265139 -4.2939333e-05 -0.0063775 0.0019734884 0.0022225564 0.0034157701 0.00055810984 -0.004578911 0.00012324672 -0.0065499176 -0.00484726 -0.0035374572 -0.006141122 -0.0030625896 0.0048087537 0.0002698571 0.0037083256 -0.0052058673 0.0025307355 0.0006398689 -0.0022505352 -0.005426862 0.0048375586 -0.0048966384 0.0008286364 0.006315868 0.004425167
公車站牌 0.0006966494 -0.0063649365 0.0012053502 -0.0024992023 0.0023935079 0.0004932532 0.0027499518 -0.0036931704 0.0028638092 -0.0055555915 -0.006442215 0.0015422633 0.0010526655 -0.0023174838 0.0045175753 -0.0039002788 0.0058887913 0.0007823513 -0.0075146565 0.0006939721 0.006532046 0.006792611 -0.004079254 0.001558963 -0.00807998 -0.004086677 -0.0030406124 7.3572526e-05 0.0015541678 -0.003884126 -0.0024618162 -0.006090406 0.00090992654 0.0033862505 -0.0056346715 0.0012543355 0.0022969267 -0.006136829 -0.0025919154 -6.08566e-05 -0.0034990641 -0.0073840655 -0.00016805368 0.0017926829 -0.0016049177 -0.006183192 0.0033780164 -0.0041760583 -0.005965494 0.005716309 -0.0005701037 -0.00036187336 -0.004067458 -0.00031019142 -0.0053718905 -0.0038574403 0.0022081824 -0.001517975 0.003577009 -0.0060414243 -0.0069173924 0.0060171383 -0.00397755 -0.004275623 0.0041404567 -0.0022985802 0.0004693246 -0.0077767754 0.0037868808 -0.0056803063
渡船頭 -0.006788096 0.004889154 0.0005244814 0.00032175943 -0.0032574462 -0.0049099615 0.0027991585 -0.0057275095 0.0053811227 -0.0010687358 0.006500822 0.0016071558 -0.00800675 0.0070088166 0.0022836486 0.0027197525 -0.0022837063 -0.0032655785 0.0017489786 0.005207951 0.004396361 0.002904154 0.0041629975 0.0038708185 -0.007710275 0.00085413613 -0.0004098614 0.006478458 0.0044157947 0.006355815 -0.0031995093 0.004677128 -0.004981365 0.0045403764 0.005364009 0.0059615923 -0.0019988818 0.005330433 -0.0032927373 -0.0004394746 -0.0024959648 -0.0061139893 0.0034311668 0.001142831 -0.0037445002 -0.006647919 -0.0017648552 0.0023697626 0.003860366 0.0011084013 0.00023237687 -0.006476768 0.0006033404 -0.0036265496 0.002080571 0.004759031 -0.0008262195 -0.006849251 -0.005460925 -0.004651766 -0.0017327744 0.006403606 -0.0020885812 -0.0066653085 -0.0031392807 0.008781035 0.0005730698 -0.004625098 -0.00022022783 -0.0058852797
youbike 0.0051907753 0.0058680032 -0.002450956 -0.0049673957 -0.0043161795 0.0028161104 -0.0010791918 -0.004018884 -0.0022979565 -0.0041404995 -0.0044795545 0.0027239185 0.004044125 0.0048511215 -0.007489735 -0.0024495209 -0.00060834584 -0.0076573747 7.975116e-05 -0.003743049 -0.004913085 -0.0018125538 -0.003696696 -0.005853266 -0.00686748 0.00592992 0.0054654116 -0.00046431 -0.0006912695 0.0056737885 0.0045587304 -0.0019178628 0.0018797516 0.0056852885 0.00033879944 -0.0049034003 0.0027636238 -0.0024420992 -0.003342193 -0.005516312 -0.0016092211 -0.0025746534 -0.0053202305 -0.005492155 -1.206854e-05 -0.0060144253 0.0028229838 0.007110111 0.006193363 -0.005446438 0.0045937407 0.005628415 0.0023939274 -0.0039874436 -0.00410429 -0.0070207487 0.0037225233 -0.0016180845 -0.001411851 -0.005360607 0.004440741 0.00013492651 0.0051960144 -0.0016746151 0.004347977 -8.4544896e-05 0.0062711216 -0.0071123615 0.0031918522 -0.0037732564
腳踏車 -0.0022466304 -0.0006131479 -0.0063720257 0.0012348503 0.0020155616 -9.384426e-05 0.00085100683 0.0021078624 0.0050410717 -0.0015683473 -0.004889787 -0.004049381 -0.0007770212 -0.002618529 0.0019384007 -0.005268272 -0.0015046531 0.0049000042 -0.0008973147 0.00054858864 -0.0031466205 0.0029791915 -0.006453176 0.0010660377 -0.0013753836 -0.001188519 0.0016012556 -0.003085241 0.007108633 0.0060856957 0.005129154 -0.004413261 -0.0017523726 0.003220499 -0.0015767012 0.00441288 -0.00020969522 -0.007845866 -0.0024349398 0.0063191443 -0.0015502906 -0.0021533244 -0.0008938225 -0.007425626 0.0011698718 0.0035908662 0.004947739 -0.0034069617 0.0051985756 0.005510202 0.0003728537 0.0060277577 -0.0051454213 0.0046917074 0.0020031806 -0.007291426 0.0070263245 -0.0046181506 -0.004867648 -0.0037965502 0.0055386894 0.0020829686 0.0007684039 -0.0014145813 -0.002282381 0.005355795 -0.0013471908 -0.0035986686 -0.0033203443 0.0015541991
ubike 0.002595565 0.0063390797 -0.0063951234 -0.0019309653 -0.00030478224 0.006479085 -0.0028915177 -0.006734345 -0.004506414 -0.0055779135 0.006217757 -2.3899496e-05 -0.007079073 0.0040655266 -0.0025077867 0.0069016153 -0.0003389483 0.001580756 0.0012007303 0.001718538 -0.0018011049 -0.0029219594 0.005048624 -0.004233076 0.006024491 -0.0055164564 -0.00090017315 -0.003185392 -0.004640992 -0.0011547623 -0.007067519 0.005795462 -0.00073102873 0.0074947923 -0.0044761957 -0.0051329616 -0.0045155385 -0.0020071869 0.0028194485 0.0032464347 -0.0010602779 -0.006125475 0.003428682 -0.0010932998 0.005710342 -0.003961675 0.0022335036 0.0013934746 -0.005753767 -0.0040060347 -0.004460197 -0.0009003324 -0.00019953653 0.0064775757 -0.003118224 -0.0014421791 -0.0037525517 -0.003937327 -0.0063951574 -0.0041315383 -0.0038808917 0.0037632608 -0.006996559 0.0025411502 0.002883608 0.0054798205 -0.0057859086 0.0017442437 -0.00019591572 0.0020174745
淡水youbike 0.0057318737 -0.00082049 -0.00014446759 -0.008633342 0.006530984 -0.0028452156 0.0020013966 -0.0018089473 -0.00015044257 -0.003473135 0.0045428965 0.0074869203 -0.00767514 0.008940421 0.00079780445 -0.006825735 -0.005055736 -0.0029718052 -0.004425425 0.005771501 -0.0029198986 -0.00220563 -0.0059261965 -0.0017354909 -0.006553758 -0.00026877725 0.007946218 0.0076155993 -0.0035914334 0.00010825783 0.00044617974 -0.0012510016 -0.0020147841 0.0075943996 0.008569446 0.0025283908 0.005471448 -0.009667031 -0.007816263 0.0076822387 -0.0022203114 -0.0015843792 -0.0018678358 0.0018976129 -0.0039912993 -0.0072413 0.0052547758 -0.0010806588 -0.0056496016 -0.0067036515 0.003004646 0.0046487674 -0.0016193517 -0.0028745772 0.006745999 0.0058744117 0.00010076412 -0.004259381 -0.00393167 -0.0060447096 -0.0052236533 -0.0003008168 0.0042372285 -0.000424106 -0.005047211 0.0067619216 -8.77554e-05 0.0029455586 0.0011752667 0.0008396873
廁所 -0.00395121 -0.0045491676 0.0036928274 -0.0009625335 0.0030654965 0.0043042847 -0.0057957373 -0.0067265173 0.0011100274 0.0049375137 -0.006520994 0.0053228037 -0.0024374423 -0.0005950403 -0.0070152464 -0.0065912046 0.0067385226 -0.007277649 0.002994811 0.00057279906 0.002330204 -0.004974761 -0.0066141044 0.0011175979 0.0030780057 -0.0072355256 -0.0024964488 0.00420914 0.004262675 -0.0020983652 -0.0023955163 -0.006262439 -0.004541745 0.0006182698 0.002510514 0.005714876 0.0030863893 -0.008170447 0.006046519 -0.00062036555 0.005544215 0.0019849786 -0.0063697556 -0.0012425993 0.0063541853 0.005680703 0.0021203086 0.0046847076 -0.0034278878 4.3268567e-05 0.0019506195 0.0062225475 0.0023115464 0.005483286 0.00070479326 0.0011759691 0.0056920205 0.0005762287 -0.006570781 0.0043464773 0.0050484496 0.006618843 -0.00068929675 -0.006575356 -0.007399202 0.0008785392 0.0008335463 -0.0077169365 -0.00031548503 -0.0048584063
洗手間 -0.0041473275 0.006947564 0.005347538 -0.004672117 0.0054515093 0.0007008108 0.0046777003 -0.0015096552 0.0035676442 0.0040217573 -0.0072275335 -0.0060134856 -0.0061171516 -0.0009190709 -0.008271304 -0.0015874353 -0.0054169414 -0.0030723205 -0.005785574 5.7972546e-05 -0.0009650181 0.0048841843 -0.0074345865 -0.002032711 0.0027943146 0.004892888 0.0011087597 0.0038813727 -0.004564984 0.0028806229 -0.00035498277 0.0049275495 -0.0007122819 -0.005658184 0.005527406 -0.003171381 0.000845979 -0.0051944465 -0.00607592 0.0028658526 -0.0025962524 -0.005202668 0.0007296977 -0.0011971112 -0.0064418134 0.0023850112 -0.007962693 -0.0025041818 -0.0070591522 -0.0037189592 -0.0033736834 -0.0067292578 0.003968952 0.0036844104 0.0064256173 0.0022963858 -0.0013137651 -0.0015170786 -0.006888393 0.002440182 -0.0051498003 -0.0006568331 -0.0076642027 -0.00056511024 0.00094289426 -0.00078958744 0.0029541007 -0.0059801466 -0.0007095993 0.0030057821
男廁 0.0029684016 0.0073300456 -0.0020440135 -0.0014636159 -0.0056722783 -0.0068332003 0.001509145 0.0053656073 0.0053092875 0.0007729428 -0.0016978205 0.0003373719 0.001779423 0.0065952376 -0.0057764067 -0.0007233101 0.0066358335 -0.0033322342 -0.0053434954 -1.8442292e-05 -0.003140027 -0.007050064 0.0027692248 -0.0035783334 -0.0026219934 0.00052415713 -0.00012360077 -0.004236128 0.002080806 -0.0036447614 0.0026373228 0.0018282788 0.0003577759 -0.0054780776 0.007573294 0.006926793 -0.005472497 -0.0036752874 -0.00050712633 -0.0026897772 0.00040768387 -0.0076767905 -0.0024881982 -0.0022796993 -0.00015762352 0.0008657676 -0.0044009667 0.007161224 -0.007084927 0.0048743957 -0.0032783619 -0.004626158 -0.006415472 0.004257722 -0.0042526433 -0.0010809649 0.0027325095 0.005323946 -0.003137663 0.0050476235 -0.004972599 0.0025013518 0.0024306804 -0.0032459288 -0.0006492252 0.006721913 0.0066504586 0.0034575746 -0.0045713284 -0.0031623426
女廁 -0.0013270697 -0.0044120206 0.0047635133 -0.007243276 -3.6825593e-05 0.0015435438 0.0032985155 -0.006323629 0.0015327849 -0.002365757 -0.002940144 -0.0060539315 -0.0046322183 0.0056659626 0.00082474697 -0.0045378 0.004324845 0.0027311472 -0.00087254087 -0.0050750296 0.000567998 -0.001106812 0.0013794075 -0.0079058735 -0.0059859985 -0.0017265115 -0.00547598 0.0020170237 0.004891677 0.0007739768 0.004092645 -0.005654185 -0.0023160959 -0.0042639016 0.008374867 -0.005830539 0.0035927084 0.0010273844 0.0018219558 -0.0037678953 -0.004447412 -0.005461414 0.0043379976 0.0032600374 0.00600664 0.0061691366 0.0031592753 0.0029027036 -0.0038780575 0.00015877982 0.0013301342 -0.0030596738 -6.1692095e-05 0.0026003276 -0.0042396593 -0.0009292822 -0.0059253206 0.0059286146 0.0035660488 -0.0031007216 0.0046078004 -0.0048736664 -0.005508121 0.0041413982 -0.004084513 -0.0020112223 0.00016271378 -0.0075322865 0.006081006 0.0030065281
時間 -0.004364865 -0.002621689 -0.0026630445 -0.007329915 -0.00068717304 -0.0022369428 -0.007759633 -0.0041779005 0.006071424 0.0033729686 0.00257437 -0.0036556118 -0.00044040714 0.004515725 0.0046467376 0.0039252974 0.00097128033 -0.00062725774 -0.00027150693 0.00059979426 -0.0046765585 -0.007217888 -0.00555125 -0.001207669 -0.0075926823 -0.0029775416 -0.0021784634 0.002378186 0.0039723124 -0.0040235347 -0.0056925113 0.0017830482 0.0052935868 0.0042528305 0.0015162145 0.0076237638 -0.0033353684 0.0016276749 3.2111133e-05 0.004665471 -0.0055953837 0.002249135 0.00402624 0.0048990864 -0.0044373185 0.0036294453 -0.0071062376 0.00015286302 -0.004567213 0.0066177873 0.0005635359 0.0029446578 -0.00044896902 0.00084223034 -0.0013225185 -0.0013088614 -0.0036910705 0.006266995 -0.002412839 0.0057051927 -0.0047753956 -0.005644392 -0.004294964 -0.0007444196 -0.001958422 0.006239569 -0.0038840205 4.1126958e-05 -0.004400441 -0.003521705
天氣 0.0008108027 -0.0035182247 0.0057545933 -0.0024834587 -0.005699407 -0.007506206 0.0026741868 -0.0025558614 -0.0005652304 -0.0029605634 -0.0022615537 0.007904561 -0.005241921 -0.002764701 -0.008518823 0.00084621523 0.0062103174 0.0046769287 -0.0022476262 -0.005877742 0.0045217313 -0.0039060165 -0.0065513384 0.00037728169 -0.004460831 0.0038510752 -0.0020238322 0.0041515 0.008298756 -0.0036531368 0.0019742532 0.004249535 0.0059944387 0.0047627594 0.0035446228 0.005253965 0.0045230924 0.0017637213 -0.0075035505 -0.0056049363 -0.0072177392 0.0025461125 0.004689234 -0.00656945 0.00053187803 -0.0021389301 -0.0002568369 0.006476877 -0.004369648 0.0034494966 -0.005096246 0.0030784078 0.0008701604 -0.0022779633 0.001870014 -0.004296846 0.007134359 -0.008107195 -0.0065689394 -0.0046037347 0.006049294 0.0016478861 -0.007175243 -0.0020323147 -0.003784496 -0.0018744777 0.0072007985 -0.007730969 -0.005632366 0.0042419145
幾點 -0.006340359 0.0029909604 -0.002727519 0.001210538 0.0033755773 0.0022053183 -0.006222695 0.0052584703 0.0037934068 0.00062810234 -0.0049533187 -0.006587447 -0.0013639187 0.007632571 -0.0008951732 0.0003550831 -0.0059916307 -0.0052295467 0.003910982 0.0064821667 0.0036678023 0.005655256 0.004601685 0.0009411147 -0.0013532456 0.0030091142 0.006214183 -0.0004197128 0.00014172636 0.00048030476 0.0031506696 -0.0016582913 -0.0029750713 -0.005707328 -0.0058745984 -0.0030292966 2.1457927e-06 -0.0009602362 0.0023449562 -0.0021567189 -0.0047156555 -0.0032768408 -0.006544259 0.004970124 0.00087955664 -0.0053269705 -0.006955764 0.004010626 -0.0038563316 0.0039869673 -0.005735811 -0.00047570863 0.0044961586 0.005631737 0.0020454058 0.00030219724 -0.0070241815 0.0030382595 0.0044322764 -0.0006161387 -0.00054556533 0.0022385896 -0.006050476 -0.0010476089 -0.003268604 -0.0060586953 0.0052111954 0.0045506507 0.0020238974 -0.0040790155
船 0.0024341324 -0.0011095336 0.0030596268 -0.0007623908 0.00041256894 -0.0063586403 -0.0028216392 0.0039703017 0.003990565 0.0031380833 -0.00029107492 -0.00628078 -0.0042865006 0.0005108479 -0.0070170923 -0.004390356 -0.0053882767 -0.0042036492 0.0005776239 -0.002764006 -0.0023374024 -0.00014323898 -0.0056286254 0.00644692 -0.0061430717 -0.0037552791 0.0052778414 -0.0016446059 0.007194359 0.004015353 0.002755751 -0.002917612 0.0032391024 0.0015957268 0.005267555 -0.0012837208 0.0019068646 0.00050737185 0.0030855509 -0.004004887 -0.006317323 -0.005062679 0.0031111839 0.0039335606 0.0051307552 -0.004273947 -0.0005743583 0.0027746598 -0.00043979994 -0.0014440897 -0.0023209015 0.0035193583 -0.002524628 -0.004643438 0.0073996363 -0.00574401 -0.0039198664 0.0025614745 0.004461876 0.0063837883 -0.0013799382 0.00092453364 -0.0002799727 -0.0022695996 0.0056574703 0.005928491 0.0024236736 -8.266478e-05 0.0073590884 -0.0018291838
渡船 -0.0029984575 0.007603024 -0.0064628436 -0.007610042 -0.0019178083 -0.005218755 -0.0061163786 -0.0057879654 0.0046383613 0.003912699 0.0055970666 0.0013677122 0.0004108182 -0.0033045898 -0.008124586 0.0009784308 -0.0023633935 -0.008491211 -0.0074907155 -0.003018369 0.0012704192 -0.0023004855 -0.0032750787 -0.0018566339 -0.008250627 -0.004065237 -0.0063772155 0.0070990217 0.005192084 -0.005212506 -0.003902246 -0.004546852 -0.0018767073 0.0022981432 0.005793612 -0.00022060212 -0.0051212404 -0.0066434103 -0.0051173447 -0.0013048677 -0.0072304113 -0.0060491315 0.007853027 0.0050085317 -0.0016598228 0.002777027 -0.006884941 -0.005967476 0.002530608 0.0075075785 0.0031836578 -0.0022030473 0.0027863344 -0.0015799352 0.0040882085 0.0045148134 0.003921209 -0.0010244448 -0.0072459206 0.0072765006 -0.0028914385 0.0016119083 0.004136778 -0.0034457592 0.0035119846 0.0014967369 0.00563561 -0.000734707 0.007245152 0.0047544795
幾點鐘 -0.0010441464 -0.005760924 0.0034369756 -0.002233252 0.005272337 -0.00092843804 -0.0016366327 0.0039922404 -0.0030015835 -0.0047012353 0.0023755978 0.0049443594 -0.001592832 -4.406589e-06 -0.0018097877 -0.0042064604 0.0028658735 -0.004098885 0.004394159 -0.006177315 0.004793654 -0.0014458231 0.0017838117 -0.0015274546 0.0032153656 -0.007327021 0.0064963135 0.003025951 0.0021504215 0.0006141997 -0.0059367516 -0.0010971259 0.00144162 -0.0026329437 -0.003521152 0.004120496 -0.0055604414 -0.005295315 0.005469464 0.0034095496 0.0019924885 0.0009340886 -0.0024027603 -0.0069199614 -0.006219575 0.0043707895 0.0010607727 -0.00048608764 0.0015313514 0.0005322284 -0.00026818708 0.0057464787 0.0013125131 0.0004274878 0.003069497 -0.0011204599 -0.0032598642 0.0057312497 -0.0043390268 0.0015124823 -0.0018732498 -0.0021271976 -0.0053150025 -8.0842874e-05 -0.00017762042 0.00442407 0.0014136736 -0.0019768982 -0.005790797 0.0017464947
搭船 0.0032462939 -0.0047073658 0.0021863424 -0.0076258117 -0.0029708545 0.00083479803 -0.0032030302 0.0062988726 0.0019309033 0.00074967067 -0.004282417 0.004177738 -0.0044544158 -0.0059279758 -0.0064874175 -0.0059094313 -0.0061359657 -0.0015439598 -0.0033054987 -0.0027297654 -0.00722052 -0.003749466 -0.006164277 0.0034695792 -0.0022074375 -0.0026337635 0.0055431686 0.0025983665 -0.0051174304 0.002585975 -0.0041895355 -0.0030562961 0.004363592 0.0063656513 0.0043227584 0.0060526947 0.003849832 -0.0062657073 0.00036049483 0.0067894934 0.0035644667 -0.0023399529 0.004099178 -0.003775262 0.0005574823 0.002790295 -0.0072175316 0.007882426 -0.0008511191 0.004676053 0.0031858713 0.0021678496 -0.0036774254 0.0038622862 0.0051215882 -0.0014230672 -0.005829028 -0.00413378 -0.005044136 0.001083691 -0.0041377735 -0.0062700813 -0.005331453 -0.0068436475 -0.00062901794 -0.0025557857 -0.0031981468 -0.006589907 -0.00095849036 -0.00046577337
坐船 -0.004147743 0.006251139 0.002200559 -0.0041731666 0.0052648108 -0.007572184 -0.005475986 -0.0013477383 0.0019144007 0.0017620241 -0.0032467218 -0.00011428284 -0.0024026188 0.006328143 0.003212833 0.006104208 -0.0024590937 -0.005838998 0.005371735 -0.0007904839 -0.0021546143 0.0031142235 0.0007021435 -0.005961947 -0.004444244 -0.0072063436 0.0057079117 0.0022635884 -0.0037840214 0.0014648634 0.0044831503 -0.00072435493 -0.0040845233 0.0011161696 0.004511675 -0.001398014 -0.0053901896 -0.0033961833 0.0050583156 -0.006146271 -0.0030790307 0.0025967162 0.005941637 0.0034931328 0.0046445066 0.0051227566 -0.0045651468 0.0012578645 0.0009961956 0.0007021165 -0.001829323 -0.0025445384 -0.004286594 -0.005874398 -4.0232426e-05 -0.006704829 0.005963249 -0.0034568596 -0.0024498662 0.002186238 -0.005194471 0.004685761 0.004377572 -0.00013417171 -0.0027015272 0.0012382307 0.0011259263 0.0034897744 0.004563966 -0.007022269
公廁 -0.0043377457 0.006221736 -0.0045259683 0.005017791 0.0060454584 0.0046508503 -0.007122071 -0.0013342142 0.0018635328 -0.00825133 -0.004987051 0.0062298016 -0.0024713567 -0.002466418 -0.007365811 -0.001533687 0.0038940927 -0.006630942 -0.005047086 0.0027728067 -0.00038180113 -0.00035117834 -0.003983705 0.002562175 -0.0036438708 -0.0075461725 0.004868753 0.0034368031 0.0010083274 -0.005524407 -0.004126426 -0.0023815844 0.007279056 0.0024594762 -0.0035595198 -0.003852801 -0.0015491442 -0.0073542264 -0.0079244105 0.003472564 0.00046556597 0.005675815 0.0015029137 0.0047085974 -0.0026211648 0.0019228876 -0.0014448218 0.005501423 0.0005662479 -0.0019828314 0.0010653071 -0.0012460381 -0.005449358 0.00048348127 -0.0026419125 -0.0017116704 -0.0063760006 0.00035490058 -0.00538932 -0.00055963115 0.00525252 -0.00061598583 -0.0055301446 0.0041599497 -0.0075943177 0.008361616 -0.0007864068 0.005449774 0.0036555282 -0.0059256693
協力車 0.00018055362 0.003656398 0.0042910916 0.004615713 -0.0016199105 -0.0065895827 -0.003661183 0.00047022477 0.002346893 0.0023212784 0.0055239247 -0.0019173382 -0.0018562222 0.004724518 0.0017066067 -0.0040821643 -0.005704582 -0.004506563 0.0039609284 0.0009641787 0.0054793195 0.003294021 0.002594333 -0.001699293 -0.000727569 -0.007248142 0.00014925841 0.004825488 -0.0006945227 0.0015156671 0.0009466821 -0.0050401506 -0.0016844354 0.0016599508 -0.005335925 0.004642143 -0.002884015 -0.0034065112 -0.0068554934 0.0043394496 -0.00056105654 -0.007175456 0.0033633993 0.0012511753 -0.005665731 -0.0010854026 -0.0032744692 -0.002501748 -0.0056257513 -0.0005766663 -0.004316185 -0.0058731227 -0.0046301177 0.0031450875 -0.00043788587 -0.002796446 0.0052043106 0.0023543169 -0.0015563718 7.2794406e-05 -0.00039178418 -0.0064771916 0.0065013235 0.00022152213 -0.007515761 0.006984926 0.0033775999 -0.001962088 -0.0030749682 0.0014366859
注意 -0.0010930948 0.0021437798 -0.0016187222 0.003495485 0.0040681013 0.0053483164 0.0010885391 0.0014886279 0.003078946 -0.0020045724 -0.0005944082 -0.000582741 -0.0061044637 0.00021915734 -0.0053962036 0.004432566 -0.0029875424 -0.00461528 -0.000784454 -0.0016019184 0.0040591685 0.00019194913 -0.002269693 -0.0041684094 -0.00041150596 0.0061456505 0.006128753 -0.0022612333 0.004055575 -0.0035624348 0.0040995446 -0.0019610247 -0.005093293 0.00054483366 6.908494e-05 0.0076180045 0.0019067721 -0.0043340484 -0.0058276714 -0.0053837937 -0.0011678826 0.003242133 -0.005862976 -0.0037851583 0.00093904656 -0.0014834192 -0.0046860096 -0.0008462811 -0.0038098814 0.003759683 -0.0017520434 0.005948502 -0.0059037744 -0.0010429214 -0.0038788638 0.0062376102 -0.0027296452 -0.0062393546 0.004955961 -0.0006161072 -0.002957097 0.0025156694 -0.007700592 -0.003275821 -0.004510648 -0.0039385166 0.005536663 -0.004509682 0.00026308603 0.006300425
警告 0.005868776 0.007837922 2.2087908e-05 -0.0013895929 -0.005273118 -0.0030353663 0.0032810362 -0.0060674017 -0.0009517732 -0.0038340602 -0.00730346 -0.0049640713 -0.010326761 0.0056205597 -0.006140198 -0.005252679 -0.004102391 0.0017635819 -0.003667947 1.7353086e-06 -0.0011647672 -0.00046796753 -0.005926718 -0.00720697 -0.0022086743 -0.0030236726 0.0050112074 -0.006188124 -0.0020762745 0.006857208 -0.0075686323 -0.0027836484 0.0022689651 0.005173294 -0.003386802 0.0005163444 0.0052962466 -0.006281987 -0.0063303406 0.0053920387 0.0016877634 -0.0073842527 0.005766231 -0.0011120592 0.0056585427 -0.0033106855 -0.005837816 0.008887254 -0.0051524276 -0.0048417253 -0.0038766963 -0.0024928518 0.0013484367 0.0049878987 0.004687117 -0.00365947 -0.0062140306 -0.0028519689 0.0011255391 -0.004154847 -0.0015491145 0.005229677 -0.0015471001 -0.0025621178 -0.007670965 -0.0024422626 0.00012098826 -0.0037843287 0.0013959272 -0.008177352
不能 0.0012273677 0.0042653247 -0.002501005 -0.0045784563 0.006429141 -0.0030083146 -0.007232479 -0.00685039 0.0026109456 -0.006148469 -0.00613199 -0.0026720345 -0.0030763862 -0.0031898948 -0.004403201 0.0007960348 0.0048821457 -0.007297271 0.0023209131 0.004261859 -0.0003304036 -0.0037460243 -0.0019397888 0.0052040126 -0.008003769 -0.00065343943 0.0043076314 0.0009922179 -0.004091205 1.3898144e-05 0.0010662095 -0.007861286 -0.003564545 0.002997978 0.0064657223 -0.0034050846 -3.330713e-05 -0.0045912014 -0.00126703 0.0018980821 0.004725946 -0.006616517 -0.0005050025 -0.005686882 0.00072193664 -0.0034740833 -0.0022878249 -0.003002274 0.0023141054 0.0051454394 0.0038419464 0.0012018774 0.0033076506 0.0053566145 0.0057941494 0.00023473497 -0.0068554105 -8.240857e-05 -0.006553583 -0.001987094 -0.001518728 0.00071797083 -0.006448587 -0.00030182183 -0.008094306 -0.004417129 0.0047420496 -0.0014658935 0.00036335157 -0.0049890904
違規 0.0034240826 0.0027128335 0.0028268914 0.0014167939 -0.0038037826 0.0036830546 0.0001416884 0.0024024358 -0.0057051256 -0.0018057734 0.0062738936 0.0033967556 -0.0017615507 0.0065554124 -0.007902934 -0.0047748256 0.0045972946 0.0011120918 -0.0065716584 -0.006306665 0.0056672343 0.0010324506 -0.0067984695 0.005071234 -0.007605407 -0.00069483364 0.005678683 7.4320844e-05 0.008158437 0.0004203715 0.0026480318 -0.0065576583 -0.004289868 0.007377975 -0.00043635152 0.007310652 0.0042515756 -0.0032589901 0.006068704 -0.0056932396 0.0050713643 -0.0010234502 -0.0025108247 0.0041098846 -0.004767138 0.003985686 -0.0013879184 -0.0010217609 -0.0014870113 0.003615052 0.006245536 0.0050904765 0.0005696704 0.005675934 -0.0039639357 -0.006963849 0.0020529616 0.004541685 0.0068570934 0.0073519913 0.004570365 0.006585903 -0.00025499685 -0.0072330185 0.0035826536 0.0018439246 -0.005770497 -0.0077687586 0.002151699 -0.0060682837
周杰倫 -0.0025024896 -0.0030688765 -0.0013298675 -0.0050248974 -0.004269039 -0.0034162945 -0.006513122 0.0013680828 -0.00058383506 -0.008504176 0.0003882386 0.00046696948 -0.0028796934 0.006186795 0.0015742184 0.005044871 0.004571352 -0.0038132095 -0.005722629 -0.0059765847 0.0035576606 0.0018650717 0.001328854 -0.0015073847 -0.007890954 0.002682933 -0.0052641095 0.0064229863 0.0041428697 -0.0049621067 0.0036856227 -0.0033909169 0.007101252 -8.7970904e-05 0.0064368546 0.007820517 0.0025294158 0.002203721 0.0026252377 -0.0038489704 0.002072673 -0.001343964 -0.003386696 -0.005934787 0.0017267545 0.00015236814 0.0046750507 -0.0024740705 -0.0039394596 0.002079655 -0.0066369846 -0.00469137 -0.0057783276 -0.0044136103 0.004960934 -0.0027169723 -0.0027668115 -0.0036538807 0.005260805 0.006626368 -0.0062275776 -0.0058414754 0.0014838441 -0.004241428 -0.008401547 0.0028389266 0.0048027737 -0.0050377315 -0.00014471971 -0.0051087174
周傑倫 0.0028582972 -3.48874e-05 0.0035267782 -0.0043218243 0.0038384262 -0.0064799795 0.0040936903 0.00029436368 -0.0020096572 -0.00013234638 0.00058102276 -0.0012621008 0.0025712294 0.0056153513 0.004203818 0.0020331836 3.3290034e-05 0.0060375333 0.0020926755 0.0010626318 -0.0036374799 0.0025421989 0.0058675394 0.0041922694 0.0010411146 0.00299127 0.005338316 0.007207229 0.0064422227 -0.0043911953 0.00431864 0.0015845902 -0.003672843 -0.005177882 0.006939014 -0.0036292141 -0.006406109 -0.007985793 0.0066287853 0.0007884409 0.0043453826 -0.0073958053 -0.0033792248 0.004879367 0.0041672057 -0.0042694914 0.0037220975 -0.0059860228 -0.0010028897 -0.004644578 0.0034809983 -0.0036315406 0.0031710034 0.004049784 0.0006656032 0.001545012 -0.005276584 -0.0067710504 0.005571142 -0.0025629029 0.0047945916 0.0017269676 -0.005327713 0.0055229454 0.004680782 -0.003347288 -0.006039671 -0.0015865539 0.0005047244 0.0047349543
周董 0.0021565696 -0.0063719586 0.0010278537 0.0033151647 -0.0030598722 -0.005516168 -0.007069872 0.0018038568 0.0049290517 -0.007728675 -0.0063420553 -0.0009531316 -0.0032302286 0.0064483057 -0.0061736195 -0.002739505 -0.0020521008 0.0058196243 0.0030128055 -0.0023282468 0.00037683712 0.006926142 -0.0047480795 0.0037195554 0.0014641581 0.00057361386 0.00027917422 0.0058807577 0.006542545 0.00084822724 0.0064906455 0.002177156 0.0048634736 0.0046098577 -0.0016246209 0.0029374787 0.00010354743 -0.007515593 0.0016353487 0.0068373275 -0.00027496924 0.0031478833 0.0074790507 0.006657626 -0.002939264 0.00061487994 -0.00044510528 0.00051519315 -0.0053541274 0.0021125644 -0.00086023915 0.00668511 0.004025486 -0.004987351 -0.00095263944 -0.002417186 0.00686496 -0.0027237018 -0.004099707 0.001647269 -0.0065117115 0.0016577928 -0.0006500606 0.0014444649 -0.0005054408 0.005654104 -0.00087777496 0.0009777453 0.0010838169 -0.0043811374
不能說的秘密 -0.0035523938 -0.000104071776 -0.0024351967 -0.0076309973 -0.0037575357 0.0050282083 -0.002584966 -0.0037272149 0.00368567 0.0006972748 -0.00043157392 -0.0016852586 -0.0003182063 -0.0027929095 -0.0039779088 0.0040560304 -0.00062499184 -0.007538993 0.0033608503 -0.0037024717 -0.0036815235 -0.0020498268 0.0040307245 0.0018307496 0.003262068 -0.0031775425 -0.0042849104 0.004590558 -0.0039031054 -0.0032703753 -0.0013709952 -0.0055611227 0.0017361105 0.0020432135 -0.0012356899 0.00082343124 -0.0006303639 -0.006191509 -0.0036068922 -0.002772278 0.0028461574 0.0015458184 0.004149791 0.004130562 -0.00051392656 0.0007254394 -0.0023843488 0.004510627 -0.0031116216 -0.0018121554 0.0063634776 -0.00087621843 -0.0067381836 0.00579193 -0.003026275 -0.00045181438 0.0023420532 -0.007353018 0.00611369 -0.0029894516 -0.0008153717 0.006723967 -0.006598074 -0.00072158716 0.0009093413 0.0025125474 0.0017148672 -0.0060581686 0.0069039 -0.0013053331
淡江高中 0.0022663183 -0.0062268204 0.0020849872 4.838723e-06 -0.0021633 -0.0027586543 -0.0004279226 -0.001015179 0.00091712334 -0.00043618266 -0.0013134772 -0.006053084 -0.0034824812 0.0030015602 0.0014572167 -0.00024086756 0.0035442158 -0.0050042607 -0.0034324538 0.004458508 -0.0023934962 0.0024210832 -0.0069496185 0.0029144979 0.00017205454 -0.0006269203 -0.0048273997 0.0035183227 0.0043212743 -0.0015107325 0.0062045455 -0.0041758493 -0.00050969096 0.0073353807 0.0024683904 -0.0034218382 -0.002543811 -0.0059339316 0.0064386316 -0.001728811 0.0062239193 0.0065436605 0.0048166583 0.002630492 0.004566214 -0.003962885 0.0027769299 0.00065568293 0.004630861 0.0009784721 -0.0068297028 0.0036369874 0.005967538 0.00076489156 -0.0014998788 0.0056591416 0.00080361974 0.005707635 0.0032617445 -0.0034228733 0.00088659005 -0.00078021194 0.0025053867 -0.0029118005 -0.00536376 0.003953448 -0.00022140594 -0.0013544267 -0.0017902841 0.0051820697
母校 -0.0015786865 -0.0021392794 0.0023392884 0.0056360844 0.0059617306 -0.0051751193 -0.0008860145 0.0027788212 -0.0024029477 0.0011647186 0.0040419735 0.003239727 -0.004701321 0.0070011346 -0.005552076 -0.0022656242 0.0014306245 0.00020200294 -0.0036194068 -0.003002859 0.004949249 -0.0026740714 -0.00417516 0.004785876 -0.0006237495 -0.006241114 0.0030754267 -0.00222519 0.006678176 -0.0068716705 -0.0003499862 -0.0040665343 0.003463832 -0.0034876228 -0.0005212694 -0.00209864 0.004785177 -0.0073248516 0.006589486 -0.0016766309 0.006625997 -0.0012912072 -0.003033512 -0.0032714463 0.006270477 -0.004014861 -0.0026807045 0.0026926966 0.0051899967 0.0017836384 0.001678136 -0.0011119724 0.0045142975 -0.0059084194 -0.005044153 0.0013238613 -0.0006840776 -0.0049159373 -0.0063754977 0.004907477 -0.006319512 -0.003938111 -0.0031571758 0.004785351 0.006813828 0.0017675934 0.0012222274 -0.003442535 0.002388515 -0.004198353
mrt -0.0033054918 -0.0015575988 0.0009720245 0.0002559185 0.0040005813 -0.00011470113 0.0047036572 -0.007486504 -0.0017273538 -0.004718728 0.0007443809 -0.0063635786 -0.009046621 -0.0023631875 -0.0072344346 0.003894028 -0.0015294683 0.004878019 0.0027593174 -0.00056570227 0.0023476626 0.0064089485 0.0032592835 -0.0048132795 -0.0033477445 -0.0050411066 -0.005616726 -0.0045929328 -0.00010215618 0.0005430589 -0.005165459 -0.0007660434 0.005651978 0.0037962147 -0.0012617831 -0.002960142 -0.0036481975 -0.008990016 -0.007190862 0.00021664001 -0.0050531668 -0.007304976 0.0011701317 0.0038096886 -0.0051956126 0.0021759076 -0.008055453 -0.0024446691 -0.005719013 -0.0035971806 0.007092582 -0.00037210956 0.0029801696 0.0027757143 -0.0043263296 -0.003278475 0.0044335797 -0.0042311223 -0.0013127635 0.00358299 -0.006708754 0.0014707816 -0.0066967555 -0.000576373 0.0030601865 0.0006531565 0.007976719 0.0052046864 -0.0023824282 -0.00767521
metro -0.0063142343 -0.0053399075 0.0059551946 -0.006284001 -0.0041407207 -0.0063706646 -0.0024775066 0.0036353269 0.0069420193 0.0009704588 -0.004837229 0.006024433 0.0024469434 -0.0018937532 -0.0051461677 0.0007428906 0.004815234 -0.005683471 0.004930689 -0.0031483555 0.0039398232 -0.00368846 -0.0006298352 0.0022475077 0.0004217773 0.0026209108 -0.0067215194 0.0017668838 0.0075432276 -0.0017475442 0.0020887363 -0.0042913505 0.0063630645 -0.002197363 -0.00327643 0.0014711395 -0.006956912 -0.002728661 -0.0019191304 -0.0038832102 0.0021196362 0.0053582494 0.0065718098 0.0024352153 -7.3681076e-05 -0.004145971 0.002708325 -0.0014974121 0.003460955 0.004308645 -0.00034752392 -0.0025144988 0.0025458045 0.0015901052 0.0072965054 -0.005959978 0.0021979236 -0.004431138 -0.0032457176 -0.0054639215 -0.00160453 0.0066906046 -0.0017852589 -0.00076470856 -0.006239611 -0.0027995459 -0.0032353965 -0.0050504087 -0.003629157 0.0059833797
夕陽 0.0036543286 0.0069280406 -9.18674e-05 0.0047415197 0.006706546 0.0044269967 -0.0007844772 -0.0041117333 0.0006913982 0.004636582 -0.0023612683 0.0026355162 -0.0075892396 0.004965304 0.003161526 -0.003569613 0.0033238332 -0.003279244 -0.0041747885 -0.002963503 0.0063817217 0.0058740405 -0.006618348 0.00017565605 -0.004105453 0.0017179287 -0.0057966406 0.0040923944 -0.0035914823 0.0051620244 -0.00081035093 0.0014865234 0.0047939857 0.0016355576 -0.004626224 -0.0040770266 -0.0027709592 0.0033766734 -0.004409734 0.0064257956 0.00422176 0.0008490834 -0.0036653725 0.004553264 -0.0048749857 -0.0048573907 -0.006643039 0.004607373 0.0018288576 -0.0041193054 -0.0018207873 0.00051040866 -0.0037940848 0.0030572359 -0.00515608 0.001716685 -0.007235778 0.005104149 0.0058603925 0.0042337757 0.003476755 0.0047235223 0.001084183 -0.002202853 -0.007322037 0.004400203 -0.0016570791 -0.0012406706 -0.0038159925 0.003911728
日落 -0.0039793607 0.0041249464 -0.0025156245 -0.004190464 -0.0032538625 -0.0072876955 -0.0053634406 0.0051217466 0.0039474503 0.00450282 0.005612392 -0.0052805785 -0.008191934 0.00725636 -7.6837096e-05 -0.0071858964 0.00044466453 -0.0007516074 0.0055390843 -0.0056821657 -0.004408404 -0.0059894887 -0.00068800006 0.0013747842 -0.007823713 -0.0023263975 0.0022046948 -0.0024230075 -0.0053354315 0.0021765423 -0.002484175 -0.0019195293 0.0025309487 0.004452897 0.003987321 0.0028327536 0.0022858332 0.0016717024 0.0017024999 -0.0061650057 -0.0015308948 -0.006764508 0.006652955 -0.0010548469 -0.0022571997 -0.0034316678 -0.0020551372 -0.0021194797 0.0014505401 0.002324698 -0.0050361445 0.004256879 0.00234874 0.006046809 0.0035965 -0.00071265845 0.0057860906 -0.007086655 -0.00058360375 0.003630237 -0.003136398 0.00050429127 -0.0072314134 -0.005143434 -0.0058971187 0.0021492932 0.00024449173 -0.0069584153 0.0073481626 0.004591325
太陽下山 -0.004160602 -0.0018192384 -0.000873668 -0.0042045033 -0.0015216102 0.0061644344 0.0054251263 0.0032913457 0.005547086 -0.0011634283 -0.0013399872 0.0056580706 -0.006786792 -0.0031854433 0.0027416325 -0.0042431555 0.005906623 0.0029845117 -0.006709879 -0.0067154695 -0.0031008488 -5.7384357e-05 -0.0038979738 0.0007769743 0.0045532333 0.0062140264 0.0014255497 -0.003499136 0.00636006 0.0055148443 -0.0063029523 -0.0056899884 0.0058655026 -0.0030694152 0.007895536 0.0013797708 -0.002051419 0.0056405882 -0.00023446037 0.0067539355 -0.0063316287 -0.0047300663 -0.003988956 0.0007636393 -0.0049868063 0.002184248 0.005356409 -0.0030121356 -0.0052394182 -0.004204962 -0.00545377 0.0016200049 -0.0073931054 0.0011870627 -0.0053172503 0.0045849746 0.0028591813 0.00015232942 -0.0071739173 -0.0023599702 0.003709341 -0.0064060483 -0.0020043699 0.004638946 0.0046974253 0.0020221472 0.006044596 0.006342802 0.004853046 -0.002976172
星期 -0.0024859868 0.0021428238 0.004834396 -0.0036149616 -0.004495565 0.0024049184 -8.1735605e-05 -0.004699719 -0.00024722156 -0.0014558168 0.0052265213 -0.0009591382 0.0026187934 0.0017671802 0.0020827788 0.0021352428 -0.0047790892 0.0026311728 0.00077371876 -0.00080971536 0.0010619408 0.0052164174 0.0024639666 -0.00564836 0.0005609117 -0.0036191808 0.00028284403 -0.0020558021 0.0052649053 -0.0013054968 0.001191537 0.0049527404 0.006733105 0.0022187037 -0.001791882 0.00090388535 -0.0028425446 0.0024379902 0.0009369511 0.004731661 -0.00055257796 4.0605817e-05 0.0043848846 -0.003913971 0.0036637576 -0.002342039 -0.0049637337 0.00084095786 0.004118725 -0.0031218508 0.0014105885 0.00066273723 -0.0011591767 -0.003375256 0.00393521 0.0021360272 -0.0022732494 0.0037620217 0.0050548175 0.004758157 -0.0031976 -0.0029604135 -0.0007296579 0.0038275323 -0.00027140472 0.0032123248 -0.005702852 0.00049866346 -0.002128232 -0.0031745923
